32546 10
the 0.5891307 -0.7111123 0.023923831 0.18924718 -0.19408816 -0.655613 -0.5152372 -0.69121695 0.1607225 0.6948864
of 0.6668647 -0.65457696 -0.012194446 0.07423706 -0.024017556 -0.4795221 -0.34725177 -0.6408758 0.307732 0.7820894
in 0.4119185 -0.59580004 0.01722198 0.43033823 -0.2617316 -0.26294634 -0.612272 -0.4437429 0.18705568 0.76259
and 0.4332983 -0.21774319 0.011293596 0.048088312 -0.12033779 -0.575608 -0.49604288 -0.35495785 0.15869176 0.760818
to 0.60329986 -0.40248626 0.41591126 0.20989309 -0.091285676 -1.0112717 -0.5512228 -0.797785 -0.113127194 0.73224616
were 0.60297686 -0.50888634 0.3365311 0.12975721 -0.21203716 -1.0429157 -0.85311127 -1.1667355 0.05948954 0.59640634
a 0.1781913 -0.35071933 0.082651295 0.15150654 0.33976483 -1.0049956 -0.47241315 -0.6963451 -0.027647078 0.8410927
was 0.10346646 -0.6417635 0.26638082 0.3342626 0.13433895 -0.9847821 -0.3872814 -0.826888 -0.14308333 0.8519556
The 0.5083473 -0.5024181 0.031916488 0.09726101 -0.24738105 -0.5910966 -0.47525978 -0.4453757 0.17486197 0.7008001
Jews 1.2852901 -0.343753 0.3637587 -0.19755523 0.42999634 -0.96053356 -0.82862854 -0.9023942 0.867886 0.8930255
from 0.6150181 -0.5334131 0.2509373 0.37434193 0.06951103 -0.55504173 -0.53228045 -0.8332326 0.20486306 0.7130228
on 0.5593311 -0.5779568 -0.04892043 0.43248227 -0.17479359 -0.6587283 -0.73894054 -0.6971873 0.14569885 0.627093
camp 0.38355502 -0.5617241 0.0867973 0.7235124 -0.2442694 -0.299511 -0.41809937 -1.1358305 -0.5076087 0.67829674
for 0.3987296 -0.50418055 0.11037775 -0.15476288 -0.19841479 -0.7769407 -0.22840957 -0.6151692 -0.32068986 0.8478087
– 0.16561522 0.23972169 -0.5462905 0.5370301 0.042791814 0.38977128 -1.0357027 -0.35159874 0.8735528 1.2243478
by 0.16909228 -0.5245393 -0.06080924 0.27787605 -0.065415 -0.97226095 -0.061243273 -0.4566399 0.35248795 0.8477677
at 0.51721466 -0.54312897 -0.27218238 0.5513127 -0.46747836 -0.50004876 -0.34182557 -1.0168129 -0.44991076 0.57740825
as 0.34913734 -0.52860004 0.25157532 0.17443658 -0.25420603 -0.5502898 -0.2691462 -0.62036705 -0.43305483 0.8517109
prisoners 0.4034019 -0.5724299 0.20224153 0.51723325 -1.0239549 -0.95841426 -0.28762886 -1.2774371 -0.6615355 0.6321312
Jewish 0.9071814 -0.3557113 0.62408257 -0.396697 0.40536812 -0.7068132 -0.7678496 -0.25323388 0.9510848 1.1948906
that 0.7083025 -0.31205648 0.34843987 0.28533456 -0.28763568 -0.99093986 -0.42353582 -0.53851867 -0.18612778 0.75308853
ghetto 1.1651981 -0.13331608 0.3009708 0.056931734 0.62820417 -1.0874823 -0.9844653 -0.77126664 0.47238037 0.8816109
with 0.3415296 -0.12915373 0.041512642 -0.092928 -0.29711336 -1.1297992 -0.39567327 -0.58353907 -0.05031486 0.73423517
had 0.31759372 -0.4357066 0.52289575 0.06804704 -0.24831474 -1.2861645 -0.71507543 -0.8961965 -0.034112975 0.686115
In 0.5336881 -0.8415597 0.17161223 0.2634722 0.30975384 -0.8754684 -0.7253515 -0.7118777 0.16976888 0.8096966
” 0.31710696 0.7702476 -0.30383486 0.37554705 -0.6066241 0.23325428 -0.3323326 -0.27392548 0.25200737 1.1485914
p 0.39899802 0.46769804 -0.8695386 1.0207162 -0.18222208 0.3659879 -0.55864316 0.0022900403 0.7473366 1.6678655
German 0.2690392 -1.1366482 -0.052051328 -0.108269654 0.19864848 -1.1061665 -0.40144113 -0.56199235 0.88660806 1.0779929
- 0.81085956 0.32863522 -1.9119234 0.64784175 0.015082821 -1.1153903 -1.0429909 0.039221562 1.1537664 1.6226256
or 0.33687636 -0.47169155 0.5995244 -0.018271584 -0.025310893 -1.1098331 -0.47896618 -0.9053474 -0.18897055 0.8513641
pp 0.42549843 0.52922887 -0.79178756 0.90755516 -0.2221607 0.38974503 -0.70346004 0.10177682 0.9075333 1.7607131
A 0.68879426 0.16789289 -0.5782062 0.61075 0.11547822 -0.7462548 -0.48528382 -0.031344518 0.12355697 0.8955794
fi 0.5089076 -0.35221946 -0.10981962 0.70390064 -0.3406976 -1.2634051 -0.7202558 -0.32144699 -0.060707368 0.6271858
is 0.9544157 -0.4414883 -0.28865355 0.6168438 -0.631483 0.24267031 -1.0271658 -0.7706907 0.027913231 0.59549737
also 0.5313674 -0.2915974 -0.08894012 0.23088041 -0.18240348 -0.6569425 -0.49645874 -0.23442441 0.04042579 0.75763464
who 0.28608814 -0.21445084 0.8530586 0.4604899 -0.25103626 -1.2217284 -0.14737953 -0.95790726 0.2669548 0.7944301
their 0.78905255 -0.08245414 0.5375589 -0.6150062 -0.12951522 -1.5027205 -0.44543743 -0.82604533 0.11632277 0.924617
be 1.2808803 -0.08535476 -0.3020849 0.14714721 -0.36237228 -0.4265639 -0.5298742 -0.48068008 0.16154122 0.657153
they 0.496588 -0.09776881 0.5009862 0.016320564 -0.45131454 -1.5151901 -0.82666993 -1.1501573 0.019313408 0.6421127
there 0.92147094 -0.5470402 0.056551885 0.44924986 -0.15861467 -0.61063135 -0.765272 -1.1337919 -0.073056065 0.5624818
which 0.35601324 -0.63149405 0.08816673 0.034071296 -0.0026203708 -0.9644555 -0.7108172 -0.49793792 -0.1677569 0.81127536
an 0.050370567 -0.6439355 0.32280326 0.2749571 -0.26906696 -0.7880954 -0.5509283 -0.38668376 -0.3502206 0.88371056
about 1.0795376 -0.4344106 -0.0886076 0.4420029 -0.2007759 -0.5596667 -0.97156733 -1.0935661 0.23061594 0.5017087
work 0.30977362 -0.4178373 0.32013768 0.04287596 -0.4381737 -1.2168967 -0.9173231 -0.73166543 -0.805786 0.79107183
not 0.9165691 -0.20209731 0.55944324 -0.055899274 -0.59861696 -1.1085703 -0.33639425 -0.60780656 -0.39734685 0.84731805
PM 0.17863628 0.2007479 -2.1154199 0.10879324 -0.5475237 -1.6355889 -1.8916605 -0.43773818 0.052694287 1.2004476
indd 0.18454586 0.15801209 -1.9559363 0.12440385 -0.5792152 -1.5166291 -1.8450614 -0.3208643 0.05371152 1.2185209
labor 0.6286039 -0.7829604 0.19811173 -0.26758617 0.11321539 -0.9850908 -0.88279426 -0.4321375 -0.59848416 0.99455243
See -0.06864939 -0.22136277 -0.51535857 0.61833185 0.6302593 0.0008639084 -0.80043674 -0.6195739 1.2922897 1.2488565
this 0.8700555 -0.53357595 0.16874425 0.30456042 -0.43354356 -0.79207754 -0.5630447 -0.32088 -0.21289054 0.7639504
them 0.44701102 -0.03598366 0.6122266 -0.20358604 -0.3381494 -1.6063293 -0.58312917 -1.0721899 0.43079117 0.7127521
On 0.45905405 -0.69024444 0.116436206 0.44861132 0.23654905 -1.1314772 -0.6228835 -0.78619605 0.41628984 0.772548
SS -0.22921945 -0.6504773 0.29276574 0.88667375 -0.6954538 -1.461733 -0.5039394 -0.6206903 -0.080820344 0.7487089
other 0.6642344 -0.50484866 0.288778 0.015445961 -0.40532187 -0.77777916 -0.60670376 -0.7973807 -0.16448912 0.65277374
into 0.34938198 -0.6007478 0.54313546 -0.18446481 -0.13689919 -1.114225 -0.94715554 -1.2612411 0.36171603 0.7013592
local 0.408716 -0.64592654 0.33892834 -0.25587398 0.47836486 -1.6438259 -0.3766296 -0.81389517 0.7546096 1.0935389
subcamp 0.3982563 -0.59875005 -0.08947725 1.2380713 -1.0649228 -0.33569354 -0.90546834 -0.72651875 -0.7480223 0.7775147
town 0.6964429 -0.77093995 -0.09691458 0.014026674 0.6028495 -0.8902598 -1.2502306 -0.97979146 0.8840925 0.8864662
camps 0.55961734 -0.9592769 0.17620344 0.25528577 -0.2550176 0.119571246 -0.5871553 -1.009024 -0.43988046 0.87721837
Germans 0.62399113 -0.5181693 0.58607435 -0.26422876 0.09696129 -1.4982139 -0.7754748 -0.82139426 0.85615337 0.8891247
some 1.0420604 -0.29469985 0.40594238 0.05195296 -0.1008645 -0.87638414 -0.5536968 -1.1821904 0.32273856 0.6357313
der -1.0480866 -0.09684976 -0.19521677 1.3436826 -2.0053341 -0.38575256 -1.2752957 -0.27218637 0.6460619 1.4229738
M 0.85542536 0.71389884 -1.2903106 0.85933256 0.8485155 -0.24123889 0.08304989 -0.41545275 0.20376426 1.8246331
it 0.69442827 -0.43178454 0.22805765 0.11416819 -0.22399895 -0.61906654 -0.48943174 -0.8086732 -0.43845883 0.7386023
September 0.608163 -0.8033063 -0.21302615 0.7789967 0.39589044 -0.7659629 -0.43073052 -0.5849058 0.44373435 0.8624066
August 0.5093469 -0.69060594 -0.31708497 0.7909965 0.33426058 -0.72656333 -0.4415154 -0.33323118 0.4249354 0.9140775
but 0.77850103 -0.4256853 0.5248882 0.02863611 -0.3517169 -0.91510326 -0.34079123 -0.914145 -0.16092762 0.7370094
been 0.5486137 -0.70821625 0.65144867 0.4050401 -0.47135428 -0.94131017 -0.80609226 -0.6927035 0.048217498 0.68588436
P 0.30566236 0.3949139 -1.7589469 0.09556344 0.24688905 -1.4497449 -1.557871 -0.28892308 0.68568784 1.3470181
all 0.7607662 -0.5767749 0.21801385 -0.022633467 0.0556647 -1.1091582 -0.68579113 -0.7554802 0.10948404 0.77624756
police -0.14834614 -0.88536084 0.12540133 -0.06600754 0.4251712 -1.9155781 -0.25474566 -0.92799103 0.9236536 1.1994008
number 1.2398713 -0.7314008 0.19156833 0.31342712 -0.19986577 -0.64656484 -0.5682531 -0.86521965 -0.03550067 0.71401674
concentration 0.28665838 -0.98004615 0.047573186 0.60957354 -0.6875767 -0.1768015 -0.57225835 -0.8346564 -0.7855338 0.8898094
found 1.3756552 0.03425632 -0.69621426 0.589403 -0.5957499 0.05371479 -0.53803945 -0.41290691 0.5311137 0.90322125
forced 0.5583133 -0.6994951 0.17560047 -0.5691299 0.054719537 -1.1576856 -0.91927755 -0.8129339 -0.1999353 0.90159076
after 0.5487167 -1.0015529 0.30144662 0.34962013 -0.21198009 -0.93623954 -0.35712916 -0.9386688 0.48825988 0.7665834
women 0.40761122 -0.3770768 0.35917372 0.59774077 -0.6178281 -1.2042521 -0.7865974 -1.3165692 0.09127552 0.48006108
only 0.8241796 -0.2940797 0.18737161 0.2501741 -0.20144725 -0.9121286 -0.5331175 -0.9303191 -0.30722988 0.6440341
one 0.49603185 -0.31886196 0.13935643 0.30775338 -0.20852126 -1.1327114 -0.48874345 -1.1703724 -0.13188656 0.60134435
ed 0.19641727 0.47970024 0.54440635 0.35712776 -1.0811992 0.38861415 -0.2481781 -0.013843486 0.85663855 1.297705
shot 0.5813402 -0.1874816 0.27561024 0.6035003 -0.25718462 -1.8141525 -0.87822306 -1.1338153 1.1876997 0.6085517
RG- 1.3728133 0.33068252 -1.42204 0.758251 1.0399495 0.10279872 -0.032925963 -0.3872985 0.42863518 2.384088
July 0.47000352 -0.7366922 -0.3790693 0.76512176 0.28335708 -0.75057226 -0.32920387 -0.5721561 0.62914604 0.8608784
men 0.15245338 -0.762544 0.15157259 0.4080985 -0.27995768 -1.5392195 -0.5488645 -1.2257333 0.3137323 0.63592434
are 1.0932412 -0.12642483 -0.38736266 0.55297023 -1.0320914 0.030748693 -0.22394527 -0.48056915 -0.37967423 0.7952018
March 0.4014202 -0.49290538 -0.123218186 1.0758061 0.09973205 -0.57569677 -0.22791393 -0.34419617 0.14484723 0.91628486
people 1.0071336 -0.1364574 0.47270373 0.073146574 0.046325877 -1.1881449 -0.7812994 -1.3642855 0.31726423 0.65482575
April 0.4623225 -0.5822667 -0.20030922 1.1354334 -0.023997847 -0.53208923 -0.35323057 -0.6301108 0.101728804 0.8009683
two 0.5282728 -0.38410595 0.087665364 0.3839017 -0.12454003 -1.1778064 -0.60692865 -1.1179043 -0.015400529 0.57073146
October 0.5027972 -0.67554396 -0.17922613 1.0745744 0.31267968 -0.68881416 -0.40184894 -0.43918416 0.19760644 0.90698344
und -1.2818292 -0.4808867 -0.37582225 1.1155046 -2.1639793 -0.111212276 -1.65874 -0.02161827 0.6388242 1.8749114
during 1.1889868 -0.40008223 0.43342343 -0.12289158 -0.74423087 -0.4642735 -0.61417866 -0.5551955 1.043778 0.7452872
ch 0.4675447 0.37373716 -1.6268222 -0.07191107 0.07516875 -1.6326116 -2.0765772 -0.053029846 0.6425272 1.3977481
inmates 0.7074493 -0.46928322 0.22895877 0.4903144 -0.62559515 -0.77703625 -0.47203442 -1.1070698 -0.697474 0.66431224
I 0.1671496 0.50450945 -1.1029674 0.74678797 -0.5488222 -0.6867012 -0.38723606 -0.65282536 -0.007921696 0.751163
his -0.057481583 -0.09890072 0.69210315 0.58098555 -0.34780735 -1.213615 0.102372944 -0.14357196 0.015113918 1.0936061
June 0.6344686 -0.87823296 -0.16074052 0.7120738 0.11077843 -0.5494311 -0.268418 -0.5639331 0.6383193 0.8686275
no 1.1189134 0.4621036 -0.23113184 0.6650301 -0.37139663 -0.87616396 -0.5466134 -0.4903932 -0.11452876 0.5364146
sent 0.45287976 -0.50955456 0.6618329 0.8467598 0.107687905 -0.5769861 -0.7078424 -1.3030205 -0.26621985 0.7516956
population 1.4533504 -0.79892606 -0.19934353 -0.09559515 0.31633285 -0.6115929 -0.8182729 -0.9197578 0.54883456 0.84645295
under 0.13915288 -1.0920087 -0.03313314 0.05413172 -0.15715481 -0.70218486 0.011750535 -0.59837526 0.08438297 0.98693126
its 0.54849094 -0.8995115 0.4392062 0.19166535 0.092290364 -0.46599483 -0.54417694 -0.64929235 -0.24351344 0.9252153
time 0.8245572 -0.7554976 0.28929764 0.33250922 -0.17106885 -0.91299915 -0.6044937 -0.8203628 0.029021757 0.7101699
including 0.7538837 -0.40203187 0.19029865 0.079762034 0.15520924 -0.62670934 -0.53547907 -0.5633885 0.2258643 0.8074033
up 0.24854304 -0.5037392 0.4259743 -0.07370322 0.12960076 -1.2774022 -0.7166183 -1.3826095 0.1724154 0.75616145
November 0.41234368 -0.66779697 -0.19703698 0.95375216 0.1572632 -0.6429183 -0.3045374 -0.49835417 0.043991704 0.88107383
miles 0.58514845 -0.4399782 -0.72013026 0.6275085 0.41516417 0.18930477 -2.0559177 -2.4015098 0.83098614 0.97281396
can 1.5697247 0.05473549 -0.7907365 0.50547457 -0.39202166 0.14197055 -0.8506173 -0.5787815 0.75780714 0.98480785
located 0.3875465 -0.7765567 -0.763721 0.5047234 0.18231446 0.11146532 -1.7901422 -1.6004673 0.1944336 0.7611458
rst 0.39798248 -0.9913991 0.2831216 0.755443 -0.38820553 -1.1582583 -0.9016635 -0.36941487 0.07989939 0.7814832
established 0.18076462 -1.1232691 0.14242603 0.23989524 0.5830776 -0.60929465 -0.91172415 -0.48721942 -0.16047306 1.1184858
he 0.062357385 -0.27268657 0.91003436 0.7114455 -0.60670316 -1.4223932 0.07323238 -0.7898006 0.038869333 0.88186795
testimony 0.6330798 0.8486288 -0.5013794 0.9869965 0.4524898 -0.655768 -0.21164364 0.2078049 0.6812118 1.691108
out 0.44733724 -0.463336 0.24048011 0.020313697 -0.34088644 -1.7364875 -0.75216997 -0.9760188 0.42879352 0.65179545
May 0.48111856 -0.49881834 -0.07524122 1.0244826 0.28771266 -0.5977033 -0.33309808 -0.4830112 0.17786147 0.88186944
de -0.0033520889 -0.3329967 -0.31932923 -0.046691217 0.6420978 0.9896014 0.4972597 -1.116711 -0.49658075 2.456024
According 0.9168224 -0.34946534 -0.3343273 0.6741292 0.06482946 -0.58295 -0.5056669 -0.6884657 0.47325337 0.64270467
more 1.0684199 -0.51956886 0.20728156 0.20595297 -0.16418187 -0.7410928 -0.5971185 -1.0674713 0.032037333 0.64286876
They 0.29174048 -0.3098778 0.29444543 -0.22039458 -0.3368721 -1.3745046 -0.7330634 -1.0002885 -0.09904591 0.66287345
few 0.8805658 -0.4229057 0.30016643 0.24777052 -0.3006989 -0.90187603 -0.6109034 -1.2188838 0.3990296 0.5581027
USHMMA 1.3810786 0.14655289 -1.5671986 0.18053079 0.43314135 0.3859717 0.7889635 -0.8606942 -0.36193055 2.4725354
USHMM 1.1607426 0.49737227 -1.3657688 0.531484 0.5164405 -0.40434662 -0.8245676 0.2897402 0.4038366 1.8597198
prisoner 0.3514285 -0.15285987 0.1249855 0.88629544 -0.74477947 -0.9649495 0.26432246 -0.5934844 -0.7314417 0.940472
Police -0.47254845 -1.2499623 -0.18323533 0.41629723 0.583385 -1.414193 -0.20044829 -0.68464726 0.92068386 1.4114279
December 0.6219662 -0.55756503 -0.34606645 0.7796276 0.3142525 -0.6272585 -0.31273702 -0.478655 -0.0034626913 0.8785367
Judenrat 0.5798013 -0.17086792 1.0094376 -0.02182782 1.075889 -1.562233 -0.6591888 0.09017221 0.067947075 1.7177799
u 0.06989883 0.013669848 -1.8432943 0.15316886 -1.4811962 -1.1797975 -0.8763802 -0.5690485 -0.5504448 1.0806139
vol 0.7258201 -0.040762838 -0.22101119 1.0789014 -0.2649374 1.0590031 -0.71544266 0.10609454 1.5332115 2.304435
January 0.48662806 -0.46935174 -0.18343687 1.2102052 0.18611065 -0.6308601 -0.28254458 -0.5597443 -0.058028687 0.8812282
following 1.480026 -0.053100664 -0.46094278 0.6463494 -0.26991284 -0.30333441 -0.7831058 -0.3266625 0.8633077 0.8360957
Soviet 0.93876743 -1.0770079 0.061805062 0.07499777 -0.35445824 -0.67418015 -0.1912091 -1.3437485 1.4440137 0.7897474
where 0.22708331 -0.4210827 0.41545492 0.40113935 -0.2744475 -0.8658402 -1.0961165 -1.412743 -0.012029033 0.52531826
II 0.4310658 -0.39590284 -1.5651071 0.8864906 -0.3367245 -0.6284728 -1.2300372 -0.5003121 0.09484448 0.87791884
most 0.83784896 -0.5318296 0.42200714 0.01363082 -0.47443017 -0.64651656 -0.6178342 -0.70391905 0.117863156 0.692115
authorities 0.6790482 -1.0816876 0.28430948 -0.45016342 0.4978899 -1.0155476 -0.21325761 -0.68262434 0.403949 1.1918732
offi -0.062227108 -1.2804818 0.014734444 0.4500845 0.49382806 -1.5145516 -0.415629 -0.24806018 -0.16725135 1.3772722
food 1.0179822 0.55541974 0.7981525 -0.71024454 0.0077793044 -1.5072074 -0.2711502 -1.0195786 -0.6393525 1.26347
OF 0.38868415 0.08349658 -2.2583194 -0.6737121 -0.4964707 -0.90985906 -1.2758772 -0.62602973 0.07317734 1.379945
There 0.72941303 -0.09576495 0.0003556076 0.1920279 -0.5738026 -0.65460795 -0.6379544 -0.7267177 -0.34617594 0.5850221
It 0.5343346 -0.7354783 0.14696011 0.27545035 -0.02469727 -0.6969726 -0.6441859 -0.99067885 -0.2983716 0.6718911
many 0.96350825 -0.29974338 0.6988083 -0.07666119 -0.40506023 -0.7349048 -0.6080465 -0.8958044 0.2054537 0.7402522
war 0.5247979 -0.9814807 0.3761334 0.25175172 -0.85886514 -0.45595035 -0.32143855 -0.8442087 0.20680475 0.7168667
those 0.8549089 -0.18169452 0.68618935 0.13422944 -0.25628692 -0.98454595 -0.5257637 -0.98706084 0.2997126 0.72844094
At 0.41982195 -0.67935824 0.095638655 0.4051455 0.16324806 -1.1972518 -0.6518224 -0.9247433 0.16109763 0.69205034
Ibid 0.32944784 0.6824937 -0.9546378 1.2366902 0.49439707 -0.41903108 -0.9170941 0.26256305 0.6523138 1.9213157
village 0.75732106 -0.50390726 -0.30568114 0.14115222 0.84688044 -0.83839226 -1.1023961 -1.2319415 0.8759746 0.83898395
Poland 0.4892222 -0.6954624 0.8056261 0.3401953 0.47234392 0.7113389 -2.079891 -0.5490193 1.3778998 1.8625928
end 0.63822174 -1.0889542 0.21274756 0.50156265 -0.06945638 -0.85501266 -0.52537435 -0.7781017 -0.011236885 0.8006646
these 1.0228003 -0.46972883 0.25487262 -0.093148515 -0.3983151 -0.72463244 -0.5807475 -0.5159189 0.16176422 0.7415224
des -1.0761681 -0.55703783 -0.9587081 0.90429306 -1.3273807 1.0000502 -0.90952504 -0.45567194 -0.33434433 2.3178174
day 0.79361963 -0.112808146 -0.16502781 0.51518613 0.26158112 -1.881006 -0.51646376 -1.4171776 -0.12920104 0.67642385
sources 1.512418 0.060683463 -0.15308437 0.4737366 -0.7697735 0.58914614 -0.5212317 -0.80633307 0.0474882 0.90792906
former 0.111516654 -0.40753448 0.055521935 0.7047047 -0.34105545 -0.9353098 -0.08386441 -0.41828808 0.076089196 0.8461772
February 0.50423217 -0.5450578 -0.24517499 1.1349934 0.08992025 -0.6795391 -0.27153575 -0.46046394 0.041312758 0.80713683
several 0.7378533 -0.5405892 0.24051341 0.32108882 -0.29536945 -0.9705658 -0.6146809 -0.72720575 0.12057587 0.6431427
between 0.6233495 -0.83303165 -0.097627364 0.26028198 -0.03571652 -0.6946041 -0.62801594 -0.9794253 -0.15310973 0.67250144
than 1.1545641 -0.54781926 0.19721627 0.1925617 -0.18220696 -0.82367104 -0.7026608 -1.2684857 -0.051630277 0.64059615
B 0.16676027 0.43737653 -1.687928 0.7636092 -0.017038584 -0.7180074 -0.52841574 -0.494478 0.34246078 1.16985
see 0.8746222 0.10796019 -0.33885664 0.65598524 -0.061280448 0.11222039 -0.20673117 -0.07135405 0.466491 1.2193549
then 0.109965235 -0.5609613 0.3428297 0.43516502 -0.015534533 -1.1974611 -0.7222049 -1.210541 0.44539282 0.6201821
AND 0.36713797 -0.0065757036 -1.9770778 -0.46282524 -0.36829576 -0.91732645 -1.2148825 -0.5241108 0.053352498 1.1985232
report 0.81652933 -0.43399596 -0.61120516 1.1221546 0.09433385 -0.76720566 0.013934903 -0.29378098 0.19030824 0.98706347
before 0.9405824 -0.45084366 0.5548481 0.15070812 -0.82070076 -0.5704201 -0.5844389 -0.758786 1.0784142 0.6341596
transferred 0.37072498 -1.121443 0.23287061 0.70019364 0.07389259 -0.43370354 -0.79256046 -1.1930186 -0.13138847 0.75726956
arrived 0.35825828 -0.81637836 0.45763975 0.967906 -0.00731787 -0.7396024 -0.84315634 -1.3372762 0.24261181 0.62734646
Holocaust 1.028368 -0.03801612 0.1231172 -0.24315771 -0.77645576 0.46917823 -0.666452 -0.11494078 2.0146842 1.9358281
No 0.33289123 0.10151918 -0.7650407 1.5003388 -0.007931961 -0.17367701 0.60184264 -0.90861326 -0.22968312 1.347325
reel 1.1709276 0.4797262 -1.4938716 0.80132484 1.3163518 0.05628974 -0.38872936 -0.40326512 0.427649 2.5301187
held 0.61226594 -0.66200805 -0.20178625 0.524123 -0.4382467 -0.54200196 -0.02706566 -0.92745316 -0.10415575 0.6956077
Polish 0.28966072 -0.27154124 0.7713118 0.66256684 -0.051995218 -0.8497373 -0.31697798 -0.58147734 0.71947575 0.86799043
ordered 0.26431695 -0.6373386 0.25151697 -0.07900072 0.67216414 -1.7956085 -0.8921188 -0.49259368 0.22988544 1.1358079
SOURCES 1.2088208 -0.4629126 0.32438847 0.87753975 -1.1371652 -0.15275848 -1.0070896 -0.45851338 0.645074 0.6399624
part 0.25441837 -1.3162004 0.12286328 0.07488302 -0.06561774 -0.07493225 -0.86700284 -0.85708237 0.1737847 0.8647712
members 0.08063529 -0.68931526 0.67893016 0.27235666 0.019095818 -1.3331116 -0.0056993035 -0.5523543 0.49346924 1.1200566
area 0.50828856 -0.83616734 -0.049072385 -0.17458907 0.24290022 -0.7530891 -1.1772373 -1.2796452 0.11322057 0.7245319
conditions 1.2417604 -0.0918112 0.6910992 -0.17484546 -0.39755103 -0.61740863 -0.5420463 -1.1385355 -1.0678169 0.96592486
have 0.94242775 -0.28311133 0.645283 0.32353613 -0.81960493 -1.0149504 -0.5419971 -0.27903688 -0.17052168 0.80012006
Ukrainian 0.1489088 -0.76277435 -0.021666083 -0.2142416 0.7936266 -1.5437627 -0.41733983 -1.0261617 1.7620565 1.3198386
kilometers 0.5777564 -0.44709387 -0.48311102 0.77439654 0.035053633 -0.32075047 -2.5478468 -2.0073173 0.9165233 0.7709298
later 0.022467168 -0.6223979 0.45853835 0.82148445 -0.086558565 -1.0227503 -0.6559032 -0.8093986 -0.0727152 0.7677945
Army 0.15346949 -1.3973823 -0.7776861 0.05749855 -0.25893742 -0.8037149 0.06327835 -1.8741101 1.714167 1.0707462
ce -0.26595968 -1.7448734 -0.16739084 0.670052 0.8527019 -0.5049444 -0.15220857 -0.50262684 -0.30959246 1.8057653
CAMPS 0.35515746 0.17278294 -1.997546 -0.68912864 -0.64220315 -0.96603835 -1.3215255 -0.5038761 0.06318086 1.2754446
over 0.2897098 -0.92550766 0.2096123 0.06406004 0.191987 -1.1205623 -0.35091084 -1.118867 0.097392865 0.81310403
administration 0.13870184 -1.5356869 -0.0078041423 -0.07890215 0.66316617 -1.0005901 -0.64177036 -0.53029 0.23681077 1.3854314
group 0.21544662 -0.6335731 0.5945049 0.41297892 -0.3136151 -0.89227057 -0.5976776 -1.1722155 0.27446765 0.7020816
until 0.25948474 -0.87083936 0.3243635 0.88897014 0.013079989 -1.065687 -0.44222406 -0.970489 0.0899327 0.7614906
when 0.7204334 -0.6327217 0.45593455 0.50499797 -0.22030936 -1.0492562 -0.38809612 -0.9131955 0.18649398 0.67764413
well 0.24237849 -0.5056991 0.077268064 0.21738039 -0.35189897 -0.67985857 -0.40107864 -0.5174351 -0.22869582 0.7776953
guards 0.025775718 -0.6706946 -0.042165652 0.30096158 -0.68150747 -1.7421212 -0.03400311 -1.1867462 -0.3055306 0.7443538
AYIH 1.0547118 0.7811788 -0.45847437 1.4002137 0.75013065 -0.38985988 -1.4081962 0.5248573 0.85773116 2.2958539
took 0.43386233 -0.7988362 0.23449385 0.4078973 -0.08263407 -1.4441696 -0.39291033 -0.87593436 0.4580543 0.7355876
could 0.73141783 0.1231642 0.62801415 -0.27478498 -0.5407833 -1.4093077 -0.44593906 -0.93369347 -0.53341836 0.8794243
worked -0.25671828 -0.59475136 0.10387843 0.015074792 -0.36044225 -1.2497739 -1.0361814 -1.042649 -0.9100202 0.84481686
military 0.18341506 -1.562116 -0.35668164 -0.112844735 0.24706307 -1.2160562 -0.09598894 -1.0876012 0.47183692 1.1116029
Some 0.91029483 -0.0985904 0.51875323 0.054389663 -0.09652666 -1.037122 -0.8218799 -1.0176811 0.385563 0.6055827
After 0.47115582 -0.62740225 0.29238993 0.2524863 -0.18052974 -1.007762 -0.46816656 -1.1607568 0.56008136 0.639323
center -0.18005343 -1.0771508 -0.41616616 -0.36645806 0.65038854 -0.04540638 -1.7350065 -1.1825002 1.0409143 1.5400436
factory -0.45876852 -0.6724385 0.057426833 0.044473216 -0.7088498 -1.2992055 -1.2496443 -0.85810655 -0.9758763 0.85052335
barracks 0.019460535 -0.52136475 -0.13474415 0.06923904 -0.19844656 -1.2661906 -0.9119954 -1.846682 -1.0006499 0.7646926
children 0.6717815 0.2339933 0.74052244 0.3012325 -0.012483476 -1.2842649 -0.715288 -1.4830928 0.7452777 0.63083124
GHETTOS 0.4829177 0.06949812 -1.6287376 -0.5153752 -0.2578386 -0.6965556 -1.0837771 -0.46369836 0.14710847 1.0716156
VOLUME 0.42811728 0.10375165 -1.7874315 -0.04090098 -0.0836463 -0.87323093 -1.023637 -0.6520137 -0.10352251 1.0318145
ENCYCLOPEDIA 0.45586935 0.2442501 -2.1816168 -0.7081292 -0.4743912 -0.87435406 -1.3469517 -0.73173344 -0.028316751 1.3486474
living 1.4357065 -0.32561165 -0.05970792 -0.015560824 0.49209845 -0.5895619 -1.0205344 -1.28094 0.059584323 0.72974133
taken 0.41467384 -0.4500287 0.32168227 0.40850195 -0.4041423 -1.1232622 -1.0422144 -1.10485 0.31685513 0.4924714
early 0.5485665 -0.92801946 0.19785103 0.49621126 -0.012861509 -0.657827 -0.48095608 -0.670491 0.17562063 0.84529287
did 0.6432538 -0.21300071 0.69856405 -0.15128307 -0.72837406 -1.3216339 -0.14896661 -0.7009301 -0.354414 0.9034688
three 0.506902 -0.4346184 0.12961674 0.4804507 -0.046163905 -1.1412878 -0.6553552 -1.2626433 -0.0036662503 0.57515746
information 1.4154655 -0.116905145 -0.017652156 0.51913244 -0.7763861 0.118561745 -0.6039897 -0.21300799 -0.06670127 0.93684775
eds 0.0590142 1.1817365 0.14196506 -0.12854663 -1.1921451 0.9282591 -1.6885583 0.04312988 1.3115299 2.6468112
days 0.78774303 -0.5487353 0.32331693 0.5045342 -0.074024506 -1.3904209 -0.6393657 -1.3271163 0.37645137 0.6175091
construction -0.2244521 -1.281957 0.04517751 -0.2096734 -0.5864759 -0.93244755 -1.1528717 -0.8304464 -1.0381516 1.0616654
would 0.61378306 -0.16405134 0.8403185 -0.1687319 -0.40941525 -1.337923 -0.5095281 -0.68727523 -0.13903645 0.8719675
Buchenwald 0.32190213 -0.824365 -0.41382423 1.2210042 -1.0380236 -0.09566248 -0.41886473 -0.4082636 -1.0881333 1.2956343
This 0.88527495 -0.5525491 -0.06646519 0.17479116 -0.5826658 -0.4957826 -0.6562221 -0.3613107 -0.24379875 0.66522
around 0.71680766 -0.63492835 -0.0006532462 0.3905967 -0.030620793 -0.9900495 -0.9646006 -1.1903795 0.23294665 0.54447377
Aktion 0.92792183 -0.7982804 0.31820118 0.8524882 -0.1384547 -1.6024317 -1.1112474 -0.17357291 1.2448422 0.917344
Auschwitz 0.29615992 -0.39709866 0.7255285 1.3499345 -0.42355385 -0.24031372 -0.6837344 -0.90883017 -0.058379594 0.8305958
available 1.3696036 0.35787958 -0.5854187 -0.043236285 -0.42663422 0.17290756 -0.13296963 -0.4070213 -0.279811 1.109592
For 0.96123576 0.0058140485 -0.15838972 0.15874119 -0.26343662 -0.19502874 -0.015188586 -0.19321871 -0.0795601 0.9353161
ghettos 1.1648126 -0.6612744 0.50205547 -0.19207078 0.6231291 -0.52343035 -1.0610656 -0.7201506 0.3238794 1.0903944
such 0.52067864 -0.23363017 0.3978059 -0.4116783 -0.29566434 -0.74937814 -0.6882225 -0.4367008 -0.52577555 0.88318783
death 0.9277555 -0.16834508 0.36304358 0.801385 -0.7009422 -1.3394736 0.034105428 -0.55403847 -0.19586231 0.7478476
small 0.6624286 -0.33007717 0.21315293 -0.0070372634 0.3108256 -0.86993206 -0.82184327 -1.3060538 -0.21384466 0.72301006
main 0.4807195 -0.7792032 0.211486 0.40866202 -0.38258013 -0.7925831 -1.02914 -0.8303523 -0.61994475 0.7459714
killed 0.92927605 -0.13181856 0.27710828 0.57253367 -0.31741098 -1.5246781 -0.75989336 -0.99997747 1.2065917 0.59057975
As 0.5061968 -0.53944373 0.36891496 0.21168832 -0.30562803 -0.83329123 -0.44296232 -0.62072057 -0.20530266 0.72476083
i 0.36322257 1.6607145 0.11540389 1.5953786 -0.39207184 0.088555664 -0.21581535 -1.7494082 1.2885153 1.2974527
deported 1.2876441 -0.45497647 0.80006516 0.7272786 0.45305705 -0.10522279 -0.50420135 -1.6337342 0.5629426 0.9119766
near 0.096769005 -0.4223895 -0.025909536 0.5794391 -0.2544628 -0.57784164 -1.3733934 -1.693547 0.21627723 0.435554
NOTES 0.2243562 0.7648152 -1.5772024 0.9601417 -0.2734579 -0.5504282 -1.0945293 0.7120709 0.31953228 2.2781234
e 0.34545648 0.54879546 -1.4525361 1.1591815 0.41967174 -0.07534751 -0.46541703 -1.0036536 0.2414796 1.2499115
meters 0.58948594 -0.26003447 -1.0446004 -0.4809051 0.11515736 -0.40116692 -1.3297393 -3.2832444 -0.09767289 0.91445774
fl 0.37816182 0.17483743 0.7513283 -0.20252034 -0.6002677 -1.3027023 -1.1275253 -1.1768587 0.5003433 0.59366643
Warsaw 0.9134684 0.6501799 0.77553064 1.1421344 0.3296734 0.38326958 -1.4849148 -0.48660654 0.6375541 1.3534232
remained 0.809311 -0.75425005 0.38994944 0.3170599 0.014042481 -0.8911927 -0.74341446 -1.2042726 0.25166866 0.6795737
city 0.27816287 -1.041386 -0.26621836 0.08693527 0.17757832 -0.5778151 -0.94901675 -0.9583554 0.32747006 0.76164454
Acc 0.9454986 0.83566254 -0.9124979 1.4878367 1.0880442 -0.105984114 -1.1246078 0.19699144 -0.33718297 2.5748072
used 0.30100882 -0.38460752 0.035033833 -0.30321288 -0.72810405 -0.72489125 -0.79874814 -0.62521774 -0.6283499 0.74902856
occupation 1.2394253 -1.2635175 -0.093443364 -0.02378943 0.2736495 -0.9083331 -0.6345778 -0.6988285 1.143741 1.0458343
became -0.1403035 -1.0284579 0.43202624 0.0069124545 0.37853315 -0.68692005 -0.7030462 -0.6818481 0.21532588 1.065119
community 1.2731757 -0.14810151 0.71462446 -0.13631687 0.53254974 -0.4363182 -0.71975285 -0.32440287 0.36590177 1.1380413
BA-L 0.6680562 -0.17886221 -1.3669647 1.8786874 -0.43011457 -0.63623774 -0.96182656 0.2881354 0.6597396 1.762391
because 0.63182193 -0.21711005 0.77353156 -0.19159424 -0.7916785 -0.96946377 -0.19734564 -0.8533637 -0.416452 0.82753307
ga -0.20323642 -0.7161481 1.425884 -0.39662 0.89111865 -1.1930239 -0.37266642 -0.35671 0.7094028 1.8709097
made 0.40138 -0.29837462 0.024179675 -0.1934195 -0.4360707 -1.2904382 -0.54250973 -0.58644474 -0.1568562 0.7000529
site 0.43158466 -0.58819133 -0.06428606 0.122557044 -0.65314907 -0.5495984 -1.0231316 -1.1035963 -0.1936501 0.4848259
died 0.8828309 -0.08101419 0.5506159 1.074166 -0.8484645 -1.0229267 -0.22711405 -1.2750735 -0.13315333 0.53986895
ITS 0.61026466 0.15957658 -0.8684724 1.0975487 -1.456096 0.37925535 0.20118822 -0.6137979 -1.0598323 1.744205
among 0.7682433 -0.20625646 0.6605877 0.08810713 -0.1572093 -0.639401 -0.15631676 -0.72851944 0.23892471 0.8378432
Kreis -0.07021646 -1.0322651 0.6090064 0.4693341 1.2069842 -0.27086315 -2.1997633 -0.20701309 0.8240974 1.9529779
PART 0.37211907 0.1431068 -1.4592063 0.43022043 -0.34793252 -1.2562367 -1.5517405 -0.18789195 0.062432025 0.9496218
French -0.1393345 -0.9406055 -0.124022946 -0.67468584 -0.865673 -0.030153094 0.6517956 -1.3128595 0.24614683 1.413477
workers 0.26411596 -0.75590867 0.1140554 -0.43647608 -0.15308246 -1.084027 -0.5089168 -1.0606399 -0.7116512 0.980032
trans 0.082075104 0.6169834 -1.333815 0.9751167 -0.67936707 -0.14714791 -1.1360056 0.5361291 0.14028938 2.2437546
remaining 0.88153166 -0.56122434 0.5597832 0.2477704 0.18281077 -1.1378831 -1.1175336 -1.2019426 0.47107875 0.71071255
outside 0.5746558 -0.25998756 0.17019 -0.094289094 0.03933967 -1.2522008 -1.1691649 -1.0757643 -0.13078906 0.6503887
being 0.4713745 -0.34895328 0.6741534 0.14339249 -0.4243944 -1.0329419 -0.378419 -1.1667798 0.11779148 0.6764814
against 0.2940845 -0.5738683 -0.10467244 0.52918494 -0.74924535 -0.98720443 0.4917095 -0.104776 0.81418794 1.0477068
large 0.6044154 -0.647688 0.09947239 -0.2087713 -0.2035547 -1.0529898 -1.0152079 -1.0515803 -0.3120918 0.644759
summer 0.56819475 -1.1002192 0.14643815 0.04698769 0.17126827 -0.98575056 -0.81632864 -0.61584014 0.226216 0.8964746
transport 0.77162176 -0.4903915 0.308071 1.1897388 -0.58420056 -0.69652265 -0.8829661 -1.1170553 -0.66985595 0.62503403
place 0.740033 -0.63451403 0.20637515 0.47619453 -0.09857065 -1.0955554 -0.5162355 -1.0649899 0.37371796 0.6379105
He -0.2756772 -0.41662276 0.94352126 0.7387334 -0.31259668 -1.4884523 -0.1809683 -0.5558313 0.18710151 0.98933804
brought 0.5951212 -0.33485144 0.5004264 0.5365144 -0.10335485 -0.89600927 -0.89525676 -1.1350672 0.26037553 0.5690713
approximately 0.68010753 -0.72811294 -0.027069822 0.5047172 0.17434065 -0.4627826 -0.90106255 -1.8357553 -0.041057896 0.6210076
laborers 0.4259197 -0.6920712 0.22627456 -0.24858582 -0.050084673 -0.930018 -0.6836857 -0.96751654 -0.668156 0.9283806
New 0.4228952 0.15987027 0.26777834 -0.290121 -0.94017553 0.4159665 -0.30964002 -0.17032441 2.0828252 2.1722794
sian -0.12589315 -1.0201027 -0.226938 -0.38345867 -0.71259516 -0.9470454 -0.6288937 -1.011632 1.690709 0.96553665
raion 0.91300434 -0.62184983 -0.89032096 0.34603533 1.287455 -0.3636711 -1.0226648 -1.6674466 2.0115366 1.5723057
From 0.27511287 -0.8543896 0.08660558 0.50530416 0.19119862 -0.8025449 -0.68186224 -0.77239126 0.14873607 0.75764203
any 1.1355724 -0.08854151 0.44398594 -0.38746548 -0.5588331 -1.2656323 -0.28387633 -0.42896983 -0.12762119 0.9207897
included 0.21015877 -0.5406461 0.2820022 -0.014010352 0.21653424 -0.76216596 -0.58711743 -0.34586668 0.06996342 0.9509395
University 0.65518427 -0.0952174 -0.4663801 -0.15798096 -1.1624117 0.766792 -0.46936697 -0.008308508 1.7919492 2.5673854
VHF 0.9347627 0.9555397 -0.8154804 0.9828857 0.75770444 -0.639068 -1.2080653 0.53392714 0.85307884 2.3368063
escape 0.66614735 -0.0688248 0.94991046 0.32808316 -0.9250571 -1.3931726 -0.44200394 -1.005441 0.79745245 0.6807529
another 0.55945677 -0.38154694 0.3543607 0.7067447 -0.14313592 -1.0051888 -0.6596351 -0.91669965 0.062011182 0.6138697
total 1.3597435 -0.92858416 -0.3455279 0.37083104 0.17891914 -0.80277544 -0.9936673 -1.4634233 0.5177613 0.6250803
forces 0.61769736 -1.4573236 -0.20212623 -0.08274139 0.070357196 -1.4491313 -0.68394136 -1.392693 1.4455732 0.9169978
w 0.23114347 1.959064 0.34314495 2.759241 -0.035140783 0.6251777 -1.9891993 -1.6960809 1.0097281 2.469597
Jerusalem 1.0346483 0.6192624 0.020776922 -0.69425756 -0.61073434 0.44990158 -1.5158379 0.021524359 1.9819602 2.692845
order 0.26459187 -0.68748623 0.16955927 -0.05688804 0.24947804 -1.2110279 -0.19015191 -0.20260143 -0.11318368 1.135001
Berlin -0.71353805 -0.60746026 -0.4955537 0.8076437 -1.1945395 -0.3189834 -0.8404104 0.19966733 0.517294 1.4295332
Romanian 1.0928993 -0.89698297 0.31597424 -0.39360932 0.73845786 -0.18303892 0.764129 -1.5871601 1.4092655 1.7160784
YVA 1.0260333 0.7187749 -1.6160209 0.8633562 0.09824792 -0.7823666 -0.8839832 0.32222548 0.92997634 2.148021
same 0.8581768 -0.42556742 -0.08519162 0.44792968 0.18758883 -0.81182116 -0.30445388 -0.86555606 -0.06297836 0.7598754
GARF 1.2699908 0.43255255 -1.7357967 0.9403084 0.06500039 -0.8249897 -0.84482455 -0.13863091 1.8014361 1.864584
et -0.17333433 0.7990931 -0.5109062 0.26908156 -0.3804871 1.2985184 -0.76211554 -0.18890221 0.31517282 2.6213768
others 0.5054189 -0.111497365 0.4215449 0.58079416 -0.48021144 -0.964891 -0.25101358 -0.851761 0.3391144 0.5571767
JSS 1.2460321 0.41859776 0.55340606 0.887444 1.7241018 -0.5546568 -0.85948557 0.24635658 -0.5026088 2.315051
nearby 0.4533096 -0.32300124 0.39892268 0.19052029 0.09385949 -1.0377394 -1.4924324 -1.270184 0.39989266 0.61142755
new 0.27818486 -0.86011666 0.59539455 -0.045809314 -0.17659804 -0.6620051 -0.74654365 -0.32823652 -0.5201126 1.0369966
subcamps 0.59718883 -1.0255051 -0.064482845 0.82707447 -0.94682336 -0.3042137 -0.9147802 -0.7897505 -0.9853979 0.85013384
By 0.77158564 -0.7231851 0.3296865 0.35480544 0.6865869 -0.76094615 -0.6703324 -0.9236953 0.11809236 0.90659255
probably 0.73818386 -0.8911537 -0.083732076 0.73132885 -0.3208106 -1.0448703 -1.069623 -0.76087606 0.17625156 0.5682213
female 0.16965203 -0.56442064 0.13936359 0.8834997 -0.86846536 -1.2225497 -0.039837264 -1.1567979 -0.60012543 0.763263
received 0.6136186 0.08208144 0.3755558 0.21413492 0.35228717 -1.3538966 0.13206942 -0.863795 -0.5493593 1.0856564
building -0.27883548 -0.5992042 -0.038263775 -0.46455535 -0.20140691 -1.2363847 -1.0686035 -1.4170235 -0.7485874 0.8683431
occupied 0.6933408 -1.473951 -0.35389745 -0.030299108 0.3076326 -0.6854662 -0.8469495 -1.5692832 1.0090472 0.89131415
began 0.41413224 -1.1073883 0.37325177 0.10116336 -0.21764407 -0.9603769 -0.66399527 -0.7585614 0.15900205 0.7839893
Council 0.38788283 -0.6214955 0.7091324 -0.24063046 1.181753 -1.0026562 -0.17272034 -0.19958803 0.4553281 1.7877178
murdered 0.81496835 -0.45732817 0.34076956 0.47951975 -0.25449073 -1.3799657 -0.88691664 -0.83335245 1.115984 0.6291401
families 0.8543385 0.11503801 0.6817486 -0.047451418 0.62231433 -1.026346 -0.7957131 -1.1674267 0.38573146 0.9741527
State 0.058249023 -1.3522625 -0.82892555 1.1138756 -0.78393036 -0.012691348 0.10624808 -0.8728246 1.6189127 1.435263
Red 0.52796566 -0.6241603 0.13711351 0.25030532 -0.42249838 -0.71597075 0.5268305 -1.7651294 1.7377495 0.9396196
known 0.51999104 -0.64209956 0.40349996 0.6064358 -0.3888471 -0.5054661 -0.5382515 -0.7675071 -0.06239384 0.6842799
late 0.63226765 -0.96127015 0.21092488 0.65193474 0.24761881 -0.7708561 -0.5929639 -0.87504476 0.09682744 0.81535625
houses 0.64452076 -0.13824937 0.25466746 -0.7540472 0.23448801 -1.588786 -1.2790912 -1.3961533 0.14272341 0.8780716
left 0.5088502 -0.06282471 0.39574027 0.34452218 -0.08410296 -1.2327439 -0.8466839 -1.2005649 0.105393656 0.5827192
York 0.410875 0.452831 0.11592975 -0.2415444 -1.0145497 0.44063285 -0.242551 -0.029076157 2.0281289 2.5847745
set -0.01044152 -0.5583003 0.4718851 -0.13510299 0.46084422 -0.98348606 -0.6363231 -1.1932998 -0.23869441 0.98863536
came 0.27161673 -0.8054651 0.4123765 0.31639463 -0.09097623 -0.7364793 -0.5491512 -1.0786701 0.3403095 0.6957929
family 0.06882081 0.837456 0.69044685 0.3920521 0.63214695 -1.0408195 -0.041763447 -0.28320393 0.75204635 1.3551548
prison 0.25314152 -0.5811048 0.5510368 0.81651 -0.39199126 -0.5089924 0.23056561 -1.2165706 -0.09997711 0.8508737
so 0.68059134 0.15407556 0.54446507 0.05916824 -0.6189087 -1.1032537 -0.6713634 -1.1166363 -0.5763732 0.6295833
Transnistria 1.3711824 -0.09263914 0.6357857 0.14270113 0.94562614 0.7637622 0.3362959 -1.8297727 1.1094676 2.0684226
III -0.059820004 -0.24147142 -1.4061905 0.8138937 -0.29856458 -0.24006021 -0.28068975 -1.0667616 -0.36820963 0.9876477
Offi -0.45454 -1.9922127 -0.5013108 0.5643784 -0.06940855 -0.65956604 -0.11206301 -0.07453887 0.14177941 1.9199271
while 0.29103065 -0.18461487 0.56216 0.14232005 -0.36924976 -1.3122605 -0.44751945 -1.2135527 0.14496532 0.6185656
R 0.14231041 0.07673025 -1.4032972 0.98130435 -0.112276524 -0.62423193 -0.45480806 0.5075434 1.1886101 2.0102222
through 0.5243382 -0.2864082 0.2322505 0.12529175 -0.28222287 -0.8141557 -0.33867705 -0.96876895 0.039458465 0.63813895
percent 1.4010106 -0.99728 -0.4478365 -0.007667047 0.12550956 -0.53509897 -0.8171475 -1.6662968 0.622519 0.74090314
however 0.9901601 -0.42757204 0.43002754 0.1508178 -0.3380186 -0.6924191 -0.40048352 -0.36883754 0.03796866 0.8112084
During 0.72367793 -0.9416309 -0.04688801 0.19416404 -0.26837653 -1.1195927 -0.49380565 -1.0654234 0.49350914 0.6044427
each 0.5574988 -0.10406269 -0.023022264 -0.044618133 0.15336123 -1.3742657 -0.4718511 -1.4137288 -0.630818 0.79478776
Dr -0.39835268 -0.21030797 0.54640687 0.9736333 0.6776283 -0.88879013 0.07233508 0.040374216 0.053555712 1.6462785
However 0.7988319 -0.5269134 0.5980713 0.031357773 -0.28433356 -0.7353432 -0.465184 -0.63657725 -0.058017585 0.80338013
detachment -0.0698506 -1.0939419 -0.1827898 0.93282527 -0.35873505 -1.5108694 -0.60924166 -0.70476204 -0.035134077 0.7970534
Yad 1.1864185 0.83672893 0.40649137 -0.44247758 -0.6526279 0.3641693 -1.7053111 -0.1050599 1.8747213 2.4163868
Dachau 0.09661035 -0.78133196 0.29947385 1.3136847 -1.320401 -0.41552117 -0.5163596 -0.67995554 -0.2345069 0.9074599
back 0.52995104 -0.23223133 0.4927576 0.5401033 -0.5266162 -1.6130326 -1.0070499 -0.96333957 0.047096558 0.5274208
head -0.40167144 -0.60228354 0.28180626 0.42343876 0.49124548 -1.3820177 -0.21387142 -0.18116389 0.5344682 1.34671
Vashem 1.2168742 0.8778682 0.24928103 -0.25456813 -0.54926187 0.33983284 -1.4624158 0.03598132 1.8981262 2.4087927
im -1.3960501 0.05520174 0.07809508 1.3613489 -1.6650378 0.27958792 -1.5846525 0.09848442 0.119055174 2.4451404
ords 1.1864125 -0.7742991 -0.70277435 1.2329247 -0.49955022 -0.093984574 0.050957784 -0.51748616 -0.18212533 1.2187908
War 0.66735554 -1.1030462 -0.69598645 0.25144544 -0.34972638 0.40788448 -0.28194275 -0.4969635 1.0295904 1.2669936
Italian 0.12949549 -0.83949506 -0.12849584 -0.3807687 -0.63209236 -0.14067604 0.7998247 -2.0688949 0.2988986 1.1756572
within 0.20739093 -1.1088513 0.34193188 -0.21824889 0.36755267 -0.897007 -1.2759737 -0.6155387 0.0056746216 1.009739
Press 0.7501369 0.12744328 -0.4527471 0.17638984 -1.0480669 0.54361665 -0.42540014 0.12857473 1.8703161 2.359475
commandant -0.24079704 -0.7918379 -0.0070092375 0.8727763 0.45777413 -1.3181914 0.3287245 -0.7631579 -0.17556418 1.2454228
deportation 0.9939136 -0.58106345 0.9509922 0.12694852 0.29253623 -0.39080954 -0.64325917 -0.852162 0.40501666 0.9838647
cal 0.11404654 -0.6669296 0.95911825 -0.38266617 -1.4601803 -0.05919361 0.7085161 -1.2650032 0.2689556 1.445289
refugees 1.1917708 -0.64905524 1.2134647 -0.10409971 0.6749666 -0.30898246 -1.0864834 -1.1863083 0.46924266 1.1825777
al 0.084658355 1.0862316 -0.21058984 0.9177108 -0.14093612 1.0938786 -0.27499348 -0.51708734 0.57912207 2.491041
archives 1.8038768 -0.3923503 -1.5275527 0.9954558 -0.23504156 0.00073580584 -1.164112 -0.3145399 0.9714335 1.4242921
survivors 1.2907065 -0.11679907 0.1226758 0.56584376 -0.38018942 -0.5301903 -0.39608774 -0.46593678 0.42014173 0.7066053
kilo 0.7107461 -0.26527628 -0.6886887 -0.26313105 0.7166856 0.5850468 -1.2136248 -3.4356008 0.35137814 1.5633925
guard -0.3583353 -0.63947517 -0.18137546 0.51638013 -0.32408327 -1.9235687 -0.11673049 -1.258683 -0.3213606 0.83636373
least 0.752633 -0.54946154 0.383303 0.64005196 -0.28455058 -1.0551417 -0.5599875 -1.0931572 0.13201402 0.5868083
mass 0.8648578 -0.6534016 0.07550169 0.34694496 -0.7585027 -1.5832913 -0.8814762 -0.63970196 0.97193015 0.58942664
Nr 0.09594032 -0.28977028 -1.1774821 1.7300372 -0.3731279 0.21378902 -0.13634427 -0.08224122 0.62423503 1.9032408
reports 1.1326243 -0.27666527 -0.41973895 0.9470194 -0.46888345 -0.5561038 0.09578703 -0.43682763 -0.21398658 0.85566187
months 0.91893315 -0.80902666 0.31352177 0.44859108 -0.09790819 -0.89157313 -0.30617264 -1.0809263 0.004643124 0.77818745
Security -0.52416927 -1.4773631 -0.48620903 0.57928705 0.37081805 -1.315687 -0.08430991 -0.91392004 1.2442789 1.375996
Konzentrationslager -0.8725915 0.24153864 -0.06223979 1.0451134 -2.7539961 0.32906643 -1.080186 -0.33652648 -0.52427274 2.38274
published 0.48238805 0.08572434 -0.19712162 0.65868306 -0.9092989 0.18922621 -0.29793224 0.25626117 0.41679168 1.3158487
liti -0.08546093 -1.062695 1.0291148 -0.3462348 -1.4970899 -0.3883202 0.77757937 -1.3838682 0.060398962 1.5218788
documentation 1.6102747 -0.21895142 -0.8232224 0.3789775 -0.6555169 0.63997674 -0.744559 -0.4408537 -0.03198658 1.2228028
victims 1.1413885 -0.17452045 -0.14638366 0.5369863 -0.7553658 -1.2725616 -0.86967 -0.59450805 0.8698605 0.4630825
lived 0.9817808 -0.2449924 -0.02737777 0.06003627 0.31404743 -0.7887167 -0.9912014 -1.591033 0.2548385 0.6125378
Lublin 0.39099127 -0.61852753 0.5535493 0.846445 0.48252058 0.47032478 -1.7276088 0.057636525 0.39297333 1.662526
her 0.1455553 0.86746967 1.1113179 0.6460677 -0.57596105 -1.6219702 -0.0115196705 -0.58900124 0.52866936 1.0395648
Pinkas 0.97335285 0.8211867 0.2776111 -0.57178706 0.35361165 -0.05257929 -2.258579 0.58451265 1.255873 3.0211494
beginning 0.55924946 -1.0613562 0.09133561 0.5418926 0.13263096 -0.767454 -0.40898883 -0.97727257 -0.10204672 0.8264061
Rus 0.3486352 -0.69380575 -0.23329547 -0.25865212 -1.0373548 -0.88332456 -0.25351515 -1.1380821 1.4100518 0.6754494
Gendarmerie -0.21098013 -1.0415698 -0.1151367 0.5800565 1.0259647 -1.6073633 -0.54515433 -0.6222428 1.0452409 1.4681897
Pre- 0.6383787 0.1766468 -1.0468689 0.9294834 0.7304732 -0.45381495 -2.1348462 -0.4602991 1.9053267 1.6547903
post- -1.0750686 -0.72546357 -0.4741654 0.6615169 0.99027604 0.20832571 -3.87393 -1.7287154 2.0039182 2.954079
house 0.118016995 0.030989634 0.27001727 -0.23931335 0.23002888 -1.3607906 -0.6938257 -1.3098589 -0.41308042 0.8687085
województwo 0.17363258 0.007124834 0.013528109 1.0347478 1.6931642 0.19109939 -3.766901 -1.1558805 1.2094668 2.7745075
even 0.8564201 -0.03932586 0.50814867 -0.42147884 -0.58756745 -1.212776 -0.1936883 -0.88430756 -0.16055237 0.81677985
Poles 0.55784416 -0.664893 0.82722014 -0.22446193 -0.56137234 -0.920572 -0.56997204 -1.121393 0.7880081 0.749275
fate 2.081148 0.04984105 0.102576606 0.28581902 -0.20874244 0.13725455 -0.8802327 -0.82180595 1.068523 0.9646883
second 0.62934375 -0.6946907 0.21244945 0.54424816 -0.060320947 -0.81660295 -0.5540881 -0.96349895 0.1614981 0.6710864
Distrikt 0.14183307 -1.0661364 1.0067065 0.7645345 0.9823407 0.050450753 -2.1905036 -0.114681326 0.30047926 1.9944981
him -0.15880728 0.08411161 0.8012328 0.54392266 -0.5076103 -1.8261137 0.20302743 -0.5535902 0.4071599 1.0139881
still 0.8798335 -0.37144822 0.5578157 0.037166357 -0.11597591 -1.0325869 -0.6509694 -1.1713462 -0.07654983 0.6950662
la -0.46765256 0.4259803 -0.53085655 -0.35232165 0.80969745 1.1050435 0.55588114 -1.2439353 -0.21735251 3.41791
Nazi 0.01364707 -1.2614563 0.67013955 -0.09037072 -0.8218583 -0.05681924 0.095541544 -0.17974877 0.8242674 1.3510385
weeks 0.97005635 -0.9751952 0.30035546 0.5050055 -0.13022004 -1.1300219 -0.7171694 -1.2715362 0.42778397 0.6720777
groups 0.3966253 -0.6595007 0.4525283 -0.10396263 -0.50462925 -1.1572825 -0.66811824 -1.3429731 0.31350634 0.64101505
without 0.93226963 0.05256009 0.18429877 -0.46326914 0.0041201026 -1.382195 -0.37193424 -0.9050701 -0.021252695 0.81414753
working 0.4910432 -0.4921512 0.3448908 0.04684793 -0.29094145 -1.1549037 -0.7694308 -0.9079293 -0.762662 0.8075198
residents 0.97924775 -0.37561384 0.4536106 0.12117261 0.68784136 -1.1280787 -0.84996146 -0.91646117 0.40867653 0.94733244
re 0.07453654 -0.3905203 1.0764501 -0.3269311 -1.0476861 -1.0539083 -0.6102282 -0.6853017 0.8225376 0.9202932
One 0.48287705 -0.13231881 0.36509705 0.34001923 -0.36064872 -1.1501569 -0.4286098 -0.5807825 0.25303945 0.66593105
IV -0.051164106 -0.6219591 -1.5474982 1.7045361 -0.6328684 -0.63475496 -0.46697956 -0.42278162 -0.21872088 1.4831086
po 0.16555445 -0.7441315 0.8471447 -0.31686366 -1.1765492 -0.27867192 0.6262447 -1.3702286 -0.012725593 1.2646115
villages 1.1724303 -0.29616743 0.2610397 -0.15856956 0.6632371 -0.87693495 -1.3668623 -1.3197594 0.8313023 0.88245153
D -0.19133092 -0.22785935 -1.2533115 0.95041686 -0.1333816 0.29983336 -0.61442506 -0.050191477 0.60058904 1.6674627
served -0.26055437 -0.7442232 0.40132242 0.4371425 0.35147303 -0.84851813 -0.10697958 -0.92389977 -0.34037364 1.094577
arrested 0.14149801 -0.6824129 0.7879851 0.20251422 -0.23645861 -1.2032351 -0.01460974 -1.0631598 1.0229211 0.9190296
mostly 0.40312806 -0.7230218 0.477842 -0.010287596 -0.43663684 -0.64579535 -0.7216286 -1.1853449 0.026583977 0.6672659
addition 0.5986852 -0.60126525 -0.021762632 -0.07442502 -0.2219248 -0.82918423 -0.46329743 -0.68664014 -0.29832205 0.76311475
oblast’ -0.24724019 -0.5898612 -1.2553904 0.37189087 0.7875713 -0.5087615 -2.1869507 -1.9799222 2.711531 2.1890323
commander -0.539234 -0.74343807 0.16180752 1.001934 0.20274931 -1.340488 0.18514743 -0.6566855 -0.040584452 1.256595
tried 0.25948963 -0.15440996 1.0298201 0.62664473 -0.43487468 -1.2395315 0.22897258 -0.8383658 0.719171 0.90287226
reported 0.52660954 -0.36897746 0.30090037 0.78278726 0.25699848 -0.9939371 -0.18846183 -0.6101732 0.024586169 0.8758568
four 0.36812803 -0.5338255 0.0024687292 0.5072506 -0.021713926 -1.2090122 -0.47974062 -1.3646731 -0.09020326 0.6068984
liquidation 1.1911571 -0.5490446 0.7235483 0.6200287 0.15816365 -1.1847208 -1.165027 -0.30393252 0.8495474 0.9460689
g 1.1374574 0.7889588 -1.779474 1.529974 0.7611922 -0.84991777 -1.3236321 -0.21155235 0.49864665 2.057076
collection 1.1833416 -0.08583857 -0.8314261 0.53198737 -0.12658529 0.086565666 -0.036320932 -0.41720244 -0.34030515 1.2424755
rec 1.2686192 -0.5360218 -0.5749594 1.204536 -0.40504482 -0.11769217 0.030572806 -0.5613436 -0.32859302 1.1323789
almost 0.8937645 -0.4522455 -0.011183801 -0.007094 -0.10249823 -0.5483986 -0.81616163 -1.515254 -0.17244136 0.5451976
both 0.47272292 -0.38874236 0.044816233 0.18047124 -0.28032133 -0.6856874 -0.28034416 -0.47600588 0.042092554 0.7353254
managed 0.71854407 -0.13902308 0.9225581 0.1380729 -0.16022375 -1.3107622 -0.5879796 -1.2679847 1.0481133 0.7907081
Gebiet -1.1181526 -1.3956318 -0.44179276 -0.36894926 0.5694219 -1.1784046 -2.48842 -0.5320399 1.794273 2.2117586
put -0.015428847 -0.43752584 0.26615077 0.124028906 -0.534844 -1.2753993 -0.9316236 -0.9946553 -0.52784646 0.67611533
internees 0.6497627 -0.43446466 0.40734786 -0.4544001 -0.17647631 -0.47351152 0.4243117 -2.2540514 -0.50231904 1.0578822
detainees 0.40865982 -0.5859289 0.40450394 -0.049338408 -0.6523759 -0.35545295 0.25291684 -1.6334323 -0.49447644 0.89570475
production -0.10229405 -1.1526574 0.1389893 -0.6624954 -1.2584635 -0.95846736 -1.2188444 -0.5266169 -1.1838236 1.1440976
various 0.90793943 -1.0061483 -0.0669846 -0.30005014 -0.34124425 -1.057587 -1.0064977 -0.14935668 -0.4812082 0.9221491
force -0.0832249 -1.2561021 0.35437465 -0.40956298 0.5022415 -1.8304822 -0.49493864 -0.5589037 0.6493157 1.4732021
V -0.19529659 -0.18985027 -1.3721557 0.9365607 -0.34038228 -0.25060147 -0.422283 -0.5600925 0.61815727 1.133755
ZdL 0.37370414 -0.86361593 -1.3229679 1.7689712 -1.2861788 -0.7263748 0.05860604 0.02478894 0.037159044 1.7408892
years 0.49791506 -0.47216582 0.6182384 0.9903635 -0.46232376 -0.8591806 0.22162546 -0.9635021 0.24129602 0.8182782
able 0.9900781 -0.1954566 0.77356094 -0.32728267 -0.12770042 -1.2997961 -0.35604212 -1.2244707 0.3862506 0.8246116
last 0.8075497 -0.568111 0.23719887 0.7650745 -0.18206804 -0.81356657 -0.5703075 -0.88288265 0.08015555 0.6226159
vice 0.082887605 -1.1962123 -0.6656779 0.06896676 -0.5448486 -0.27740133 0.85157746 -1.2550042 0.017997552 1.3632749
has 0.7863826 -0.21232872 0.26060194 0.45228362 -0.8847673 -0.3256968 -0.41027886 0.1703232 -0.23759758 1.0287006
documents 1.0953697 -0.44061956 -0.75356257 0.4316202 -0.8045334 -0.060835022 -0.09122809 -0.35143584 -0.13559489 0.92489535
nized 0.08937491 -1.0038526 0.95302474 -0.23417734 0.5952822 -1.3372442 -0.433696 -0.43763697 0.56867427 1.4948636
confi 0.853928 -0.6813156 0.20211224 -0.22827846 -0.1394877 -1.649389 -1.161372 0.23455139 -0.19898967 1.0885514
S 0.15149803 0.06567172 -0.38832337 1.7388688 -0.19187593 -0.66654366 0.025938421 -0.53623486 1.3673218 1.1603574
W 0.011691302 0.22926593 -0.98242146 0.7772634 0.20030373 0.1980086 -0.15787536 0.36707556 -0.44477975 2.0144548
per 0.42679223 0.61317515 -0.6014505 0.18705606 0.4506394 -1.2718664 0.74602216 -2.0723288 -1.2181655 1.3146651
region 0.36536226 -1.0091128 0.35989082 0.12081675 0.31017426 -0.037266098 -1.1985542 -0.8701314 0.6574847 0.9174506
very 0.96490085 0.021435127 0.4454748 -0.058382545 -0.41624704 -1.0152371 -0.5000276 -0.9776606 -0.5740321 0.76814425
Lithuanian 0.17514588 -0.936727 0.32071102 -0.5501607 -0.2562966 -1.5280417 -0.9260635 -0.26393598 2.0027153 1.2717495
period 0.97410446 -0.9196412 -0.18417835 0.4061878 -0.25169834 -0.5673212 -0.30982378 -0.8312378 0.22522682 0.7118998
les 0.6615078 -0.54795074 -0.7442159 1.2029245 -0.8624387 -0.23979232 0.0152210435 -0.27411938 -0.53330094 1.2184235
leave 1.0556028 0.03653658 0.5132422 -0.641718 0.3988293 -1.8050815 -0.86432546 -0.94373786 0.18831441 1.1096379
von -1.3207518 -0.15389337 0.084627226 1.6487694 -0.77312905 -0.25412545 -0.76074964 0.0047268434 0.5704151 1.8597597
consisted 0.104938075 -0.6479511 -0.12225664 0.002568497 0.18956368 -0.9943488 -0.7456934 -1.4084762 -0.45718378 0.76455414
hiding 1.013768 0.08292816 1.2607304 0.0755581 -0.38005203 -1.6473664 -0.96175766 -0.97245127 1.1753318 0.869383
fall 0.7444372 -1.102839 0.1270394 -0.01573585 0.47081658 -1.0272022 -0.7645137 -0.4532182 0.59686315 1.089407
camp’s 0.60428876 -0.5349468 -0.07409135 0.67987573 -0.20343283 -0.64440805 0.0847549 -1.1097683 -0.6667264 0.8268951
Among 0.38938645 -0.32478815 0.84194165 -0.14893918 -0.091464356 -0.6928646 -0.15667927 -0.3764414 0.79873705 1.0452572
returned 0.73816913 -0.33821896 0.80499804 0.6177989 -0.094210856 -0.7610335 -0.5523328 -1.4300706 0.43818635 0.6502373
Flossenbürg 0.32569197 -0.90069544 -0.18268952 1.3649713 -1.2495488 -0.3601626 -0.6135182 -0.56035495 -0.6291688 0.95139927
train 0.17354147 -0.11691634 0.85704845 0.74222916 -0.09226509 -0.7233151 -1.2611401 -1.9075029 -0.055173185 0.662877
daily 0.6786991 0.022859843 0.045581378 0.2726048 0.36101636 -1.5201503 -0.39593294 -0.859805 -1.0450792 1.0507284
guarded 0.027280755 -0.66700375 -0.36546686 -0.069911994 0.23233457 -1.9353164 -0.4121838 -1.5824783 -0.00096457975 0.86499435
arrival 0.83320385 -0.70025396 0.6335991 0.47362044 0.0987763 -0.8888187 -0.6448743 -1.0777608 0.36497924 0.7482941
together 0.41182747 -0.4015242 0.32707602 0.29427233 0.012658188 -1.2319045 -0.8497768 -1.0545571 0.43969518 0.60423684
Hans -0.54442143 -0.53007764 0.18512301 1.3070992 -0.39188397 -0.7727113 -0.37056142 0.5041849 -0.23766513 1.6322231
n -0.062857315 0.23043561 -1.1347604 0.8794392 0.3882565 0.35936522 0.14682525 -0.60166395 -0.22192603 1.8348386
Aviv 0.23674822 0.82095975 0.6199006 -0.14979497 -0.0948041 0.5308114 -1.2219503 -0.07331572 2.532278 3.1275246
ha-kehilot 1.338973 0.7140935 0.34089482 -0.7843909 0.23767184 0.034166973 -2.7288764 0.44859207 1.1238009 3.1639905
Tel 0.023360902 0.9814468 0.7194624 -0.25195327 0.070066646 0.3266938 -1.3582375 -0.11853838 2.8050709 3.4288864
Reich -0.6149388 -1.3161672 0.6352096 0.087699965 -0.4890163 -0.03721735 -0.5522235 -0.22113423 0.15273358 1.4572651
aka -1.3085464 -0.26103362 -0.6647462 2.0595634 -0.67664057 -0.40344492 -2.3717637 -1.589344 -0.6706792 1.3487507
murder 1.0442202 -0.6580959 0.028758246 0.23811626 -0.7317174 -0.93160665 -0.52707696 -0.13694377 1.4267548 0.8232017
policemen 0.12643105 -0.38898107 0.15406494 0.008861385 0.17222306 -2.2645512 -0.4996741 -1.0465341 1.2145537 0.98656857
Die -1.0165732 0.09403368 0.3372631 1.1302109 -2.0340517 -0.18844879 -1.6481605 0.56279635 0.5976165 2.2627795
inhabitants 0.98874897 -0.41625178 0.42326236 -0.034372184 0.31044054 -1.1975092 -0.83840656 -0.83787465 0.5679459 0.8324198
When 0.211128 -0.30163965 0.59651244 0.19863413 -0.110133305 -1.3654104 -0.38063097 -1.1089072 0.4353776 0.7101108
unit -0.26660678 -1.1530406 0.1476015 0.47870994 0.39807397 -1.5490624 -0.4581144 -0.74827904 0.6987186 1.1216261
Sachsenhausen 0.037599143 -1.0621048 0.010677828 1.2556534 -1.1898912 -0.24508232 -0.7672119 -0.6984916 -0.64204746 1.0947262
These 0.83014226 -0.5923608 0.10221659 -0.06032179 -0.25345987 -0.69190145 -0.664316 -0.6256874 -0.069499336 0.6989131
kitchen 0.2949136 0.14543992 0.7773013 0.18187809 1.0098633 -1.4994973 -0.68427145 -1.2311037 -1.536829 1.5555189
clothing 0.58092093 0.28908014 0.15353484 -0.7444616 -0.087809354 -1.9021356 -0.58326274 -0.7030194 -0.7945654 1.1891228
example 0.6961036 -0.16217513 -0.0062098857 0.11763654 -0.074701436 -0.6631683 -0.32010552 -0.28630668 -0.06930938 0.8507867
dem -1.2398715 0.8272799 -0.7891941 1.7219435 -3.0618541 -0.6002148 -1.2042164 -1.0215102 1.0957428 2.2906842
Most 0.56918234 -0.49140126 0.5281133 0.1378195 -0.19992669 -0.60241467 -0.8030096 -1.1012812 0.15336493 0.68797994
Street 0.348952 -0.13750526 -0.0023925202 0.11724463 0.8745325 -0.85498804 -1.5929523 -1.2547485 0.11593293 0.8882175
REGION 0.54493934 0.5880751 -2.0432246 -0.6843602 -0.006212328 -1.6085786 -2.5488842 -0.61529565 0.5830499 1.8046281
na 0.08660278 2.490849 -0.3733683 1.173514 -0.18953747 0.1621634 -1.6310908 -2.0556383 1.5169708 2.0910745
Ukraine 0.15007107 -0.79613185 -0.8551047 0.44797316 -0.024842214 0.43795604 -1.3225996 -1.5260174 1.9612969 1.3865725
spring 0.60873806 -0.81565666 0.36094177 0.25062495 0.18638219 -0.7614303 -0.63923573 -0.8178873 -0.018002475 0.8208268
France 0.303408 -0.72576815 -0.16221535 -0.59827065 -0.6528408 0.9567985 -0.3107585 -1.3876079 0.17327239 1.5122722
testimonies 1.5347207 0.3046641 -0.4481007 0.46524277 -0.31644595 -0.07971431 -0.008490715 -0.2498927 0.5761009 1.226046
list 1.0455256 -0.3498035 -0.3714849 0.974867 0.03477281 -0.500527 -0.14766742 -0.41826853 -0.22258365 0.94139826
led 0.13964835 -0.38816383 0.46335316 0.50262403 -0.06308154 -1.2201385 -0.11296117 -0.5861547 0.13023889 0.83439445
survivor 1.010602 0.35378423 0.030993383 0.46639502 -0.0013203928 -0.7055729 -0.29231992 0.009073444 0.32606387 1.0000495
provided 0.3492593 -0.029329114 0.45819378 -0.12400279 0.08214383 -0.7743382 0.037577115 -0.7464986 -0.854404 1.1810768
Hungarian 0.38638526 -0.9007625 0.27698427 -0.14397793 -0.39919978 -0.37533918 0.17084566 -1.1348598 0.5873991 0.9166373
command -0.6285924 -1.1861756 0.026038991 0.94201165 0.0691897 -1.2830863 -0.009495898 -0.8728243 -0.16542713 1.2034123
carried 0.21944375 -0.96657443 -0.13288978 0.32225373 -0.40043604 -1.8655201 -0.7180867 -0.710649 0.9304743 0.74008715
AR-Z 0.32104334 -0.17559259 -1.4022441 2.163309 -0.48316088 -0.8790197 -0.8709106 0.2871204 0.6079208 1.9083236
station 0.016234953 -0.4299338 0.47246557 0.49335572 -0.07880743 -0.8243308 -1.5964062 -1.7210225 -0.19712935 0.6083156
especially 0.87739855 -0.25217542 0.10094452 -0.026659666 -0.5325386 -0.54810107 -0.13177207 -0.39427656 -0.36523983 0.8192962
Martin 0.059420556 0.7053538 -0.9378058 0.40783817 -0.37418863 -0.6780464 -0.9222675 1.1849936 0.053717244 2.466395
given 0.7373426 -0.05204295 0.011865377 0.31522202 -0.16968225 -1.203228 -0.2683993 -0.3989348 -0.11805179 0.7634152
David 0.35079315 0.22091447 -0.27430275 -0.8165524 0.30779916 -1.3373932 -0.6177102 0.8883098 0.60288393 1.8142066
along 0.21398705 -0.3845227 0.26088995 -0.0070690108 0.034257025 -0.7893465 -0.92866147 -1.8984082 0.17894058 0.54988277
Neuengamme -0.012372473 -0.88238114 0.3077704 1.1838139 -1.4445606 -0.10352131 -0.92923814 -0.37604806 -0.79248536 1.1409408
assigned -0.02730158 -0.84898865 0.16206323 0.020671267 0.01617245 -1.0865617 -0.5688248 -0.9014692 -0.6879781 0.94576585
National -0.50814617 -0.8551184 -0.12259607 -0.18431352 -1.0138371 0.1251022 0.66309476 -0.9255162 0.8372696 1.5034778
company -0.79674256 -1.0631113 0.02535927 0.29830658 -0.6130062 -1.1488477 -0.67660797 -0.59942496 -0.9029225 1.1020609
di -0.47999102 1.2429127 -0.7136139 0.19547565 -0.24428049 0.56545603 0.04862262 -2.5805426 0.20883986 1.8939711
Main -0.59954304 -1.3688937 -0.12789343 0.81836784 -0.9080567 -0.0059029902 -0.3946513 0.5330457 -0.64388245 2.40367
River 0.34076756 -0.26749763 -0.09033134 -0.11335817 0.270513 0.015063543 -1.3679012 -2.2830603 0.3578313 0.79159313
already 0.45914552 -0.7433467 0.4193349 0.23113663 -0.3940178 -0.755233 -0.7275033 -1.0996306 -0.25701934 0.6732178
sick 0.5740982 0.21301451 1.1255627 1.0525962 -0.30798715 -1.3265547 -0.57183564 -1.6940205 -0.47483274 0.76166207
Gestapo -0.06345541 -0.87507856 0.46445557 0.8281294 0.14902008 -1.3298179 -0.54525465 -0.26110163 0.47695503 1.0181712
conducted 0.7137772 -1.121198 0.0108638285 0.5002689 -0.19853507 -1.3924669 -0.4879219 -0.26785484 0.6954176 0.8885837
include 1.2178417 0.38312626 -0.10915146 0.3425543 -0.4671632 0.42665052 -0.7618 -0.116331205 0.4324345 1.187098
fond 1.4864668 1.2943457 -1.8922309 -0.041217312 0.56384957 -0.458374 1.0062065 -1.8889562 0.7602456 2.555759
extermination 1.5799782 -0.4795442 0.69475335 0.9611648 0.0018676018 -0.43874893 -1.2869662 -0.77832514 0.9479193 0.907115
continued 0.5670841 -0.6023409 0.6903434 -0.2125182 -0.1563445 -0.94807696 -0.4857986 -0.99276644 -0.047534607 0.8410021
für -1.4416734 -0.51191205 -0.63892716 0.86744034 -1.6751363 0.31681013 -0.8442605 -0.30438143 0.10169634 2.2195747
surrounded 0.18327625 -0.41370314 -0.51405054 0.10759603 0.6390205 -2.127068 -1.2931899 -1.7472446 0.096601985 0.8731766
named -0.50251955 -0.44882202 0.5919035 0.7111035 0.40503782 -1.3925966 -0.15104115 -0.41858307 0.37381554 1.3161143
places 1.0797677 -0.2513042 0.6533869 -0.22757927 0.13799614 -0.8117963 -1.071141 -0.91241217 0.3465419 0.80299073
Gross-Rosen 0.16693722 0.31876263 0.56467104 2.0115588 -0.7140414 -0.0017200293 -1.1016355 -1.5188501 -0.8468495 1.0437425
square 0.522333 -0.15393318 -0.23351409 -0.14559454 0.48214114 -1.7338516 -1.5528089 -1.8430654 -0.08306612 0.7500269
survived 1.1176126 -0.16334309 0.88822675 0.7311421 -0.43605915 -0.7702461 -0.66731006 -0.78807324 0.79284513 0.72313315
World 1.0537494 -0.98882645 -0.41567463 0.030518945 -0.40568578 0.2427731 -0.9627272 -0.6525904 0.95332277 0.9533495
Camp -0.066330336 -0.8443465 -0.8289132 0.82057303 -0.71208054 0.43459398 -0.17789704 -0.4899301 -0.10261911 1.4526851
soldiers 0.1731058 -0.7756141 -0.16303061 -0.13558815 -0.30679634 -1.629997 -0.049618524 -1.4382343 0.6642417 0.7084199
additional 0.9202078 -0.562685 0.01495136 0.26881757 -0.004317238 -0.69286036 -0.60565066 -0.6418941 -0.42812768 0.7812878
shooting 0.6805128 -0.55828345 -0.00897416 0.47352827 -0.5561173 -1.891173 -0.7340294 -0.8080219 1.1015314 0.62805617
Many 0.8625257 0.010918781 0.9428585 -0.1655528 -0.34295708 -0.9846798 -0.733171 -1.1567551 0.27023894 0.6477709
Ministry -0.47064137 -1.239606 -0.41505483 -0.5088084 -0.32321838 -0.22507288 0.9030447 -1.2667302 0.0033508 1.8063214
establishment 0.7546354 -0.9990916 0.26066008 0.22355966 0.37326676 -0.60483354 -0.8297507 0.13066453 -0.15037422 1.2307148
die -1.1857812 0.2848566 -0.006447879 1.3488283 -1.7365488 -0.26360452 -0.9928991 -0.29038996 0.049584575 1.6982584
history 1.0859568 -0.38914102 -0.13185713 0.3808229 -0.7352889 0.22132142 -0.8415324 0.073131554 -0.21441574 1.0452648
based 0.3985099 -1.0249339 -0.22497143 0.7603874 -0.0955543 -0.52678066 -0.6196147 -0.10780771 0.354255 0.9200718
liquidated 0.9709291 -0.67627436 0.39086157 0.70214087 0.54485244 -1.2305348 -1.2356883 -0.8904601 0.7390961 0.9024899
just 0.782872 -0.44801703 0.1927372 0.2282764 0.04252914 -0.8757538 -1.0428928 -1.3321009 0.1665584 0.55111706
Rayon -0.6848178 -1.0956888 -0.5996706 -0.2953635 0.9826298 -1.315404 -1.7140555 -0.7906746 2.016242 1.9230162
hospital 0.531867 -0.01044514 0.77415574 0.8743531 0.46007383 -0.8994033 -0.22588006 -1.4253492 -0.8776342 1.0044726
Romania 1.2450411 -0.51490575 0.73812103 -0.3059955 0.40092722 0.5126451 0.41347578 -1.7201029 1.3215426 1.652581
RG 0.92812794 -0.051508352 -1.5756385 1.1089873 0.38030198 0.021228962 0.37441415 -0.28905684 0.15328102 2.1641006
evacuation 0.6597502 -0.8641127 0.48591277 1.0074241 -0.8976379 -0.6722652 -0.7464972 -1.0813106 -0.06707911 0.56149703
we 0.57821983 0.6570467 0.81444514 0.45794004 -1.2118715 -1.5126773 -0.73803025 -1.2302593 -0.3812457 0.62052137
issued 0.36220133 -0.84950745 -0.17472392 -0.11711241 0.80055404 -1.080196 0.07980612 -0.1784986 -0.06997987 1.4630015
own 0.053657822 -0.26056862 0.81057256 -0.42335463 -0.031189773 -1.3854083 -0.6514272 -0.34688842 -0.21239322 1.139007
sentenced -0.05925404 -0.7432572 0.7336226 1.74255 -0.63914716 -1.1581311 0.7052367 -0.7510122 0.7782516 1.3325523
night 0.5023033 -0.030560154 0.14476068 0.24396731 -0.3897797 -1.8831097 -0.6266956 -1.3632014 0.17716388 0.560416
use 0.42363995 -0.7518676 0.10116226 -0.6402874 -0.80256444 -0.9584726 -0.78388995 -0.16411671 -0.9413227 1.0777851
railway 0.007766971 -0.40486795 0.26199955 -0.1489291 -0.35202748 -0.66298735 -1.910599 -1.8304193 -0.3679581 0.6661348
young 0.29727334 -0.10876641 0.84828496 0.05982454 -0.11821063 -1.4380853 -0.5970047 -1.1210607 0.679035 0.7526762
whom 0.59714866 -0.5533825 0.4939753 0.28958616 -0.35671413 -0.7302433 -0.18876703 -1.3983526 0.3671466 0.6758325
date 1.2869833 -0.4494503 -0.040911946 0.82892334 -0.26003453 -0.49510366 -0.88553464 -0.015050305 0.12284202 0.86276567
Germany 0.11275321 -1.1250299 0.5773471 0.14583918 -0.8407608 0.09385551 -0.20840941 -0.78064394 0.68096906 0.99175173
likely 0.9532995 -0.670089 0.4291779 0.5802012 0.05225478 -0.63110495 -0.861217 -0.7864933 -0.061340857 0.77652586
“The 0.5255778 0.0697573 -0.002272161 -0.017531786 -0.23982087 -0.20505223 -0.5031928 0.44628844 0.9299231 1.4851809
buildings 0.12845145 -0.65090287 0.073749445 -0.5737151 -0.1048629 -1.0264355 -1.2426412 -1.6502069 -0.7848918 0.8375573
du -0.4225789 -0.37875074 -1.2362745 -1.1839694 -0.22691628 1.3269193 -0.3130618 -1.0532227 -1.0092435 3.3674958
open 0.8500952 -0.22962265 0.58340687 -0.08614116 0.51927173 -1.0647974 -1.374333 -0.70473063 -0.3405561 0.9621052
source 1.3417951 -0.11269267 -0.034131527 0.32692865 -0.73430717 0.040504497 -0.72775686 -0.35342976 0.054461375 0.7791735
th -0.32372442 -1.3471097 -1.1986874 0.6349089 -0.2371653 -1.1065758 0.067836456 -1.3107852 1.1449125 1.1875006
male 0.38735008 -0.8783362 0.07346467 0.7113214 -0.59610146 -1.0093973 -0.61889285 -1.228966 -0.28201815 0.58224607
Ravensbrück 0.15556479 -0.847391 0.4367933 1.2834787 -1.3085095 -0.25620326 -0.71502495 -0.8048383 -0.46768 0.8903587
soon 0.7094964 -0.6949007 0.87373495 0.018622348 0.16989622 -1.0356144 -0.436935 -1.0040237 0.40026394 0.94748974
orders 0.31096804 -0.82389235 0.1382398 0.016240949 0.4287608 -1.5673912 -0.28482014 -0.09099289 0.20183307 1.2163488
Karl -0.9298978 -0.2599041 0.124467276 1.35561 -0.20790747 -1.0998414 -0.036119215 0.3711358 0.29553577 1.7354786
IPN 1.0128437 0.6747206 -1.3964478 1.6963538 0.49865863 -0.4054325 -1.3473105 -0.25160277 0.5483967 1.8174156
surrounding 0.9555061 -0.53290516 0.3740694 -0.24807817 0.33678606 -1.0982616 -1.3182269 -1.0934813 0.61595064 0.8499975
winter 1.1038264 0.1852558 0.36190656 -0.2743514 -0.054802336 -1.2128298 -0.67411584 -1.2357824 -0.40322152 0.7864
according 0.8342392 -0.46343607 -0.13301376 0.4963194 -0.10305585 -0.6758501 -0.16613059 -0.51898694 -0.029046606 0.76675963
streets 0.6481628 -0.1738264 0.3276796 -0.5525444 0.42215306 -1.4950509 -1.8253736 -1.1036747 -0.07143454 0.9024925
next 0.2763365 -0.28098541 0.17555594 0.640863 -0.14205635 -1.6356364 -0.90005547 -1.4062712 0.1449133 0.5521099
regarding 1.5328659 -0.38940862 -0.34380707 0.2973703 -0.24812995 0.005763667 -0.52868193 -0.24543029 0.8498768 1.0287083
census 2.021042 -0.44191274 -0.7427056 0.2040111 1.052053 0.18713935 -0.8343226 -1.7339358 1.5048351 1.4237887
account 0.7878414 0.56522274 0.23703928 1.2156931 -0.28596246 -0.58921033 -0.07750497 -0.27060914 0.23936108 0.99120563
WS 0.4425371 0.21732882 -1.806248 -0.030524734 0.050898556 -0.9081252 -1.2692913 -0.301877 -0.15212205 1.236263
evacuated 0.57990193 -0.98032606 0.31760335 0.9550316 -0.885665 -0.63710344 -0.93754184 -1.6246369 -0.15113913 0.49074745
Roma 1.1674333 -0.23488571 0.3580859 -0.47420707 -0.06739365 -0.012341337 0.3860332 -1.6878351 0.30103126 1.0369071
deportees 1.3027121 0.039470933 1.1778146 0.3011422 0.8320778 -0.3653664 -0.5092217 -1.4173969 -0.009970413 1.1014196
way 0.6349912 -0.110927925 0.6408729 -0.014440103 -0.5384859 -1.118342 -0.68036747 -1.3058879 0.3255384 0.56756145
Kraków 0.6427774 -0.014679127 0.80046546 1.2507019 1.1649252 0.10715768 -1.1373541 -0.512704 0.4070822 1.46409
F -0.10241896 0.12418288 -1.4587064 0.99724275 -0.2109912 0.059260756 -0.16560818 -0.28168783 0.7612537 1.7005298
water 0.36542025 0.643639 0.40364847 -0.6126658 -0.5097003 -1.518815 -0.91171 -1.7141697 -1.1689793 0.97058207
fence 0.383004 -0.0913299 -0.5576915 -0.145603 0.38212922 -2.077926 -1.1804425 -1.7424654 -0.6052022 0.85134155
cited 0.09104288 0.024343615 -0.71028596 0.9224299 -0.59978163 0.37464333 -0.42279208 0.30404913 0.15800719 1.6992035
life 0.82196635 -0.1482082 1.0673939 0.32527 -0.45959035 -0.56312007 0.30068487 -0.34533867 -0.0009428422 1.1697396
Court -0.1722512 -0.7217981 -0.031549267 2.253073 -0.6243131 0.04392796 0.496147 -1.0281633 1.1680745 1.5147296
escaped 0.60006547 -0.077393465 1.030514 0.6019414 -0.47077164 -1.1066494 -0.54633397 -1.1937586 0.981539 0.6849442
away 0.50849247 0.018481614 0.32980692 0.33558708 -0.37045398 -1.3312551 -1.1091936 -1.6328424 0.15693201 0.43529943
v -0.60805374 1.222133 -1.5985191 0.9941745 -0.71343666 -0.13420555 -0.17492664 -1.1022804 2.013364 2.2601833
closed 0.5749893 -0.65255624 0.33265537 0.41772237 0.10488958 -0.6778288 -0.5978344 -0.96724933 -0.4614561 0.80872154
Union 0.47045478 -1.5627389 0.00968578 -0.25194633 -0.6515993 -0.042277575 -0.45284534 -1.1743307 1.2969908 0.9792354
initially 0.006283157 -0.98520726 0.35418817 0.0763671 0.44844115 -1.016461 -0.95478255 -0.6273594 0.20421976 0.9611327
half 0.9276304 -0.63716024 0.0915932 0.38227907 0.3878247 -1.182612 -0.6243811 -1.3293626 0.08140916 0.75067484
Generalkommissariat -1.159973 -1.404022 -0.58210576 -0.16559036 0.19269016 -0.9272387 -2.4661531 -0.68724155 1.8181938 2.3451257
due 1.2000949 -0.46875188 0.7558346 -0.06480984 -0.4213741 -0.6349331 -0.50348276 -0.9657741 -0.65602666 0.84617627
charge -0.36792412 -0.97991043 0.26519325 0.3875827 0.52708966 -1.2554308 -0.05837504 -0.41872138 -0.3417487 1.3768113
called -0.22818437 -0.5833717 0.12369333 0.15348096 -0.26413104 -0.7283224 -0.30367172 -1.2888943 -0.16214913 0.70421475
leader -0.5568307 -0.6514119 0.62738675 1.0754737 -0.37258527 -1.4664743 0.15947038 -0.4132851 -0.30325836 1.2574632
moved 0.47581473 -0.5624258 0.49946287 0.34320214 0.37452522 -0.74155384 -1.0893707 -1.5303162 5.1561154e-05 0.7061584
SSR -1.2304814 -0.8566332 -0.7087533 -0.33383194 0.93069506 -0.8982873 -2.9646146 -1.4822291 3.0102353 3.1702778
transports 0.9444407 -0.6819179 0.51949424 1.150996 -0.5187704 -0.4746804 -0.7943772 -1.2976838 -0.5105354 0.7079851
Belorus 0.11081549 -0.80250454 -0.1859465 -0.6857447 -0.059070114 -1.3395731 -1.0798246 -1.0126355 2.4514186 1.3981423
killing 0.6835467 -0.6600133 0.42579222 0.17501447 -0.4894181 -1.3303498 -0.7491832 -0.6261641 0.9876274 0.68777126
created 0.1954362 -0.99804795 0.044915296 0.19884074 0.54330593 -0.4434909 -0.7849091 -0.70155025 -0.41551247 1.0519181
civilian 0.08101553 -0.8906155 0.11446076 -0.1943678 -0.26871216 -1.041816 -0.19062045 -1.0909953 -0.5331282 0.9371609
Paul -0.66116434 0.15969743 -0.022470597 0.65102327 -0.4459529 -0.7314774 0.9482441 0.2538281 0.4517462 2.089034
Stutthof 0.21041793 0.29111376 0.37061805 1.933674 -0.41059119 -0.4889362 -0.58324176 -1.294855 -0.6419173 0.87338084
may 1.2752922 -0.2779186 -0.118776195 0.6382007 -0.5923673 -0.15394711 -0.49146923 -0.3091708 -0.07211123 0.79105014
An 0.54475296 -0.2480931 0.09414259 0.47854847 -0.09331955 -0.42781064 -0.38932097 -0.13768214 0.028340511 0.87552965
All 0.65035033 -0.3367362 0.09155574 -0.12394383 0.036822565 -1.2526413 -0.6357807 -0.5381989 0.20378421 0.7523875
transported 0.4562811 -0.28214958 0.45072293 0.91711015 -0.4398267 -0.8106274 -1.0856926 -1.7373192 -0.19773774 0.45446134
mentioned 0.66176367 -0.103190154 0.032618515 1.0525697 -1.156561 0.09025673 -0.8337525 -0.33789182 0.1516429 0.759986
vols 0.1559042 0.5967594 0.15397514 0.9241001 -1.8638972 1.2640878 0.4293335 -0.9383158 1.3855953 2.4541004
result 0.9287393 -0.7247166 0.5663618 -0.10502207 -0.63003635 -0.80449826 -0.58484477 -0.68183553 -0.3020929 0.777275
civil 0.17145327 -1.7521139 -0.08958645 -0.17353581 0.9804642 -0.8832566 -0.8087875 -0.8294252 0.644975 1.6055353
typhus 1.6450187 0.42421338 1.1424139 0.34982204 0.28169343 -0.857278 -0.023086486 -1.2965823 -0.5875177 1.2141985
name 0.43944892 -0.68040836 -0.2695535 0.7526155 0.3965408 -0.5762139 -0.15769769 -0.8026296 -0.47530547 0.9287387
property 0.7263089 -0.50323 0.38819826 -0.89990693 -0.073928215 -1.5145785 -0.7690931 -0.32275528 0.36134517 1.1459187
system 0.35826978 -1.0293823 0.36370796 -0.22996834 -0.93042225 -0.35554746 -0.65810597 -0.3921627 -1.1046678 1.1504424
Archives 0.11200011 -0.53912205 -1.2716262 0.77941865 -0.56987077 1.047647 -0.3005188 -1.1502777 1.4508245 1.8738277
dated 0.4755884 -0.62329024 -0.6738586 1.737989 0.08121016 -0.52952266 -0.06798892 -0.3445254 -0.10987562 1.1843972
went 0.33769536 -0.18985713 0.59933174 0.43351397 -0.27277917 -1.364262 -0.57022214 -1.1845394 0.17573576 0.6441975
required 0.6822091 -0.6466826 -0.04676618 -0.9206262 0.3360412 -1.6875385 -0.9496102 -0.41250455 -0.3648826 1.3316324
s 0.64573836 -0.44441783 -1.1900182 0.24341822 -0.34277487 -0.060213506 -0.43445554 -0.61545634 0.51006633 0.7122618
POWs 0.83523315 -0.880377 0.011666452 0.086475946 -0.5198669 -0.347437 -0.027525157 -1.6653372 0.1048755 0.76098675
Republic -0.2867693 -1.2343668 -0.46193174 0.12595457 -0.6934214 0.51878476 -1.1300203 -1.6215277 1.9948287 1.3874546
transfer 0.74915856 -0.77900887 0.20874146 0.32450464 -0.05181518 -0.47577032 -0.46303296 -0.6543571 -0.37832522 0.86119616
KZ -0.7450939 -0.07462863 -0.69757235 1.3194408 -2.101053 0.10734363 -1.151 -0.051449705 -0.8710828 2.3116715
cemetery 0.75862855 -0.24153201 0.1481822 0.48480076 -0.5856644 -1.4169172 -1.447322 -1.1308737 0.6832986 0.38410518
Alexander 0.3330204 0.41858956 -1.5844656 0.513084 0.08490846 -0.83487034 -0.29899257 0.37941727 0.84864277 2.2960901
down 0.2899075 0.08103686 0.2974869 -0.13576691 -0.6815069 -1.68565 -0.8505609 -1.3338878 0.27422327 0.5055614
mainly 0.52713996 -0.57717264 0.5328429 -0.07130845 -0.1632705 -0.7339728 -0.97385323 -0.777161 0.14450191 0.7460343
allowed 0.76096755 0.12854782 0.5853983 -0.6680393 0.25555938 -1.4591255 -0.50122356 -1.2298669 -0.314543 1.1018034
Primary 1.0696462 0.29304117 -0.5314095 0.08033393 -1.0630658 1.5152129 -0.055629633 -1.19599 0.3817717 1.7051343
towns 1.0507267 -0.7421692 0.6934807 -0.11586054 0.6151576 -0.36878547 -1.35356 -1.0686944 0.58982474 1.0362135
case 0.545407 -0.22211842 -0.27782938 0.9832768 -0.42559242 -0.8608521 0.13312726 -0.1821877 0.4866163 0.93432355
road 0.13398334 -0.5750613 0.088717446 -0.34643862 -0.09644351 -1.0116693 -2.0401947 -1.3097597 -0.40100902 0.71942675
book 0.74729514 0.43819094 0.19957054 0.8302255 -0.85970616 -0.392412 -1.0129242 0.42189813 0.5619969 1.1280066
Communities 0.6837234 -0.13043255 0.38917968 -0.81601244 -0.18995786 0.7741761 -2.0224204 -0.051587027 1.4264282 2.9000492
ser 0.12860422 -0.9446647 0.26841873 -0.6900792 0.09605226 -1.0839962 0.74374914 -1.2507235 -0.20059422 1.4697651
tance 0.07619698 -0.42998526 1.3454621 -0.6726897 -1.174443 -0.66142833 -0.12407264 -0.8937599 1.2109903 1.2860183
Hamburg -0.4048452 -0.77817774 -0.28002098 0.6207923 -1.8570931 -0.18370435 -0.90226537 0.17129894 0.45283672 1.3223543
numbers 1.2233613 -0.79585254 -0.16144076 0.5682531 -0.68630546 -0.61293525 -0.48656306 -0.8696286 -0.7081452 0.719838
bread 0.9168967 1.2928811 0.14740194 -0.100777976 0.42782798 -2.0338743 -0.13132463 -1.666838 -0.81725186 1.3289113
chief -0.3895975 -0.5908244 -0.07335827 0.36291224 0.82325226 -1.2234428 0.15342298 -0.40823254 0.49051103 1.4300517
sites 0.54310507 -1.0090318 -0.062490124 -0.2161962 -0.87228066 -0.47301444 -0.8596146 -1.1311376 -0.66706645 0.6861243
further 1.0201063 -0.62405187 0.31396514 0.2948708 -0.5402161 -0.73285055 -0.527387 -0.30401435 -0.17899075 0.78304124
deaths 1.5162625 -0.3306531 0.22439633 0.83623326 -0.74261606 -0.76563895 -0.34226054 -0.9301874 -0.61435217 0.69555694
Sefer 0.31571212 1.2265326 0.31747496 0.32784182 0.34814423 -0.67700285 -2.0152104 0.73281455 1.9896463 2.6923912
sis 0.044997465 -0.36812845 1.3174986 -0.5551028 -1.150816 -0.5239075 0.15296562 -0.8790498 1.1174718 1.3959109
Wehrmacht -0.29457065 -1.182788 -0.0009637015 -0.01248733 -0.46947277 -1.0284587 -0.67465156 -0.65218586 0.4760775 0.86482364
hours 0.6256234 -0.11443756 -0.17597188 0.09771217 -0.2684993 -1.9703871 -0.53174806 -1.4042941 -0.41029686 0.6505016
responsible -0.12806301 -1.1380985 0.19087346 0.02252968 0.090669274 -1.2100555 -0.09102734 -0.32791904 -0.2858562 1.2463872
help 0.6190919 0.047781885 1.2168087 -0.14586516 0.27934715 -1.3192049 -0.072090924 -0.6958667 0.30084082 1.2100655
what 0.634168 -0.010586183 0.6862218 -0.086955026 -0.5273846 -0.9652626 -0.5983951 -0.8773617 -0.08077869 0.689414
forest 0.3397907 -0.19494338 0.5753575 0.32705474 -0.4639143 -1.2448375 -1.57565 -1.5630459 0.6386085 0.44992092
selected 0.42259088 -0.56542253 0.57938814 0.6463778 -0.13139498 -1.2096567 -0.9571632 -0.8771538 0.036029305 0.70702595
Minsk 0.64773774 -0.025896981 -0.6624506 0.8334624 -0.3453675 -0.27319044 -1.2121279 -0.9910145 2.0411518 1.0244977
trial 0.5678221 -0.4598442 -0.18070668 1.3715013 -0.8029863 -0.79392624 0.3852387 -0.17030719 0.28718922 1.081523
do 0.72145915 0.7128865 0.45110187 0.5518115 -0.54054236 -0.7250353 -0.6029582 -0.8715335 -0.7731813 0.6660893
off 0.18797536 0.13394935 0.3074928 -0.4006307 -0.1270142 -1.9056216 -1.008145 -1.3248606 0.21084584 0.71571743
formed -0.17447488 -1.1623625 0.2917194 0.018825313 0.14168632 -1.0546646 -0.6685385 -0.82884187 0.24503936 0.93163776
am -0.83748263 0.067165375 0.0620372 1.0770112 -1.5528467 -0.21518104 -0.4796067 0.2819148 -0.87426686 2.151557
homes 0.8049529 -0.10396312 0.76168555 -0.7864398 0.24715401 -1.6624503 -1.1600394 -1.1545222 0.44745582 1.0411102
AG -1.4191575 -1.1741419 -0.5325112 0.4863171 -1.0069548 -0.89912677 -1.1321262 -0.40062648 -0.8941234 1.4976734
march 0.5411951 -0.19071868 0.5929595 1.116126 -0.9629427 -1.1014917 -1.0210508 -1.5740062 -0.052617513 0.3770295
lists 1.2180929 -0.3154074 -0.52575123 1.013825 -0.5258858 -0.31236276 -0.29713216 -0.5765995 -0.7016051 0.9050867
partisans 0.36875108 -0.5988691 0.8444885 -0.0038917542 -0.47554392 -1.3400911 -0.41806206 -0.80078155 1.4563737 0.92421407
special 0.3339398 -0.71878505 0.16423126 -0.11883551 0.05302015 -1.2441256 -0.2206517 -0.39617327 -0.5435875 1.0943732
Kruglov 0.8414086 1.3003953 -2.4958084 -0.10386472 -0.005279689 -1.0975438 -0.59162885 -0.13180327 2.0063503 3.1538768
Other 0.74413186 -0.25056544 -0.014600992 0.2265501 -0.4678007 -0.5560662 -0.5327561 -0.1305294 0.048885282 0.76221466
VHA 1.0427929 0.8420162 -0.9433835 0.23536046 0.58153605 -0.20350122 0.69231355 -0.1948349 0.23043302 2.327694
Das -0.6199299 0.32239786 0.43052682 1.2057307 -1.7427515 0.08495528 -1.4194055 0.54774326 -0.72899395 2.31174
Łódz 1.0250297 -0.34798068 0.876226 0.79129505 0.8138914 0.17692675 -1.8361855 -0.44394046 0.43254745 1.3786176
first 0.43452284 -0.614513 0.25692162 -0.2799623 0.2508848 -0.38890707 0.39188108 -2.0748012 -0.09921558 1.0880029
medical 0.4703483 -0.031860538 0.7333201 0.3261178 0.32541147 -1.0283436 0.58609474 -1.0244186 -1.1634755 1.522305
Documents 1.3558396 -0.058484226 -0.46258616 0.54812264 -0.2609697 0.77419275 -0.11638934 -0.5957936 1.4076829 1.7701935
wire 0.22306761 -0.116722815 -0.73158437 -0.34576258 0.3605207 -2.0069945 -1.2000413 -2.060455 -0.41380522 0.90903085
le 0.23924215 -0.23058355 -1.3400143 0.9066788 0.2186211 -0.045738425 -0.33118796 -0.102873236 -0.108783066 1.6108018
Another 0.5326359 -0.23830473 0.51439935 0.66615534 -0.27705985 -0.6889883 -0.647252 -0.6398551 0.14832266 0.6586106
internment 0.73489827 -0.78749955 -0.09171697 -0.14951731 -0.20929493 0.42784902 0.165449 -1.6470656 -0.42042756 1.1528827
state 0.43616095 -0.8364256 0.41648299 0.08575489 -0.55968285 -0.3888949 0.12428851 -0.6078137 -0.2617103 0.9765201
ve 0.3829917 -0.44629312 0.24533851 1.0300539 -0.16943197 -1.3513246 -0.81800216 -1.134089 0.12818553 0.52597755
appointed -0.62467825 -1.0302076 0.5466384 0.30810606 0.9174528 -1.5066991 -0.21133813 -0.16098459 0.3806162 1.8491992
units -0.021174312 -1.4063277 -0.03380878 0.12867916 -0.06464311 -1.2928867 -0.27091244 -0.95865995 0.93927723 1.0043215
high 1.1421046 -0.09067196 -0.4297581 0.045194846 -0.41528577 -1.1691301 -0.5874167 -0.9320213 -0.50732636 0.553519
Mauthausen 0.18873835 -0.7506885 0.19763291 1.1976855 -1.2354124 -0.14173649 -0.693231 -0.66168743 -0.4062405 0.89649624
Only 0.69322145 -0.33070436 0.55269957 0.43907028 -0.31852344 -1.044762 -0.70940906 -0.9018252 0.36170295 0.57041377
letter 0.3206752 -0.1526595 -0.38121092 0.92859495 0.38245264 -0.64936763 0.15695497 0.0040575345 -0.024714874 1.3223097
old 0.29578277 0.0427145 0.60347044 0.41327843 -0.12109537 -1.3311458 -0.65144914 -1.4127793 0.098767586 0.6276228
she 0.18797255 0.5286444 0.9849586 0.63268965 -0.79979014 -1.406691 0.054484066 -1.0466076 0.39966723 0.81075925
el 0.010503259 0.31305805 1.3139126 0.66937584 -0.36770788 -1.1853352 -1.197869 -1.6692672 0.9949091 0.7825195
district 0.025287258 -1.0663352 -0.162648 0.64806926 0.5701866 -0.31894863 -0.6808429 -0.947029 -0.0610755 1.0018649
staff -0.06267191 -0.893224 0.10448037 0.69491655 -0.11317331 -1.1559132 0.18697995 -0.8680486 -0.5296933 1.1001155
names 1.0695071 -0.17752288 -0.4054185 0.70893073 -0.37851113 -0.72168714 -0.019586682 -0.52656007 -0.22542186 0.8089338
six 0.5083618 -0.6219781 0.102966756 0.65518636 0.18494013 -1.1377102 -0.4393769 -1.2496654 -0.13327704 0.72810125
Generalgouvernement -0.1564611 -0.9737275 0.7371989 0.7821318 0.8472217 0.12773508 -2.109889 -0.11456667 0.48568776 2.0425458
Those 0.71805435 0.056543764 0.78188264 -0.05181273 -0.11355631 -1.356056 -0.7334031 -1.1666906 0.14049749 0.7245907
Committee 0.4575997 -0.55591714 0.17943813 -0.021207064 0.31682923 0.3602852 0.57767355 -0.40962145 1.14222 1.9420447
wear 0.720754 -0.44469872 -0.34728587 -1.5091225 0.60389876 -2.4922454 -1.0784425 -0.17498842 0.32171503 2.031532
COURTESY 0.36744267 0.22584456 -2.267649 -0.119388774 -0.10353594 -1.210413 -1.5720193 -0.5468589 -0.16680962 1.3447763
NARA 0.39691302 -0.2732353 -2.26315 1.0578442 -0.78594244 -0.57537484 -0.070637494 -0.07632825 0.33853835 1.9072022
reached 0.60918325 -0.63786095 0.34439608 0.9539588 -0.21148735 -0.4620415 -0.43586048 -1.5753357 -0.13916127 0.5765437
prisoners’ 0.54013216 -0.24307679 -0.037448823 -0.030363327 -0.73122686 -1.1775359 -0.07999117 -0.7317988 -1.2418507 0.96929
Central 0.043334633 -1.424672 0.073197626 0.53266144 0.12939082 0.27578166 0.43612224 -0.5387685 0.71119183 1.8821915
now 0.5655713 -0.65957206 -0.317477 0.6481643 -0.3291614 -0.6969465 -0.903417 -0.3079181 0.06609502 0.6285908
permitted 0.91138035 -0.03813211 0.60503256 -0.6111014 0.57032573 -1.4437805 -0.69454616 -0.80365056 -0.22681375 1.218279
Center -0.13714011 -0.92984146 -0.79796845 -0.7328046 -0.388653 0.23081216 -0.44716018 -0.84537095 2.1349115 2.107878
majority 0.7219857 -0.8765257 0.33400902 0.10146142 -0.6099926 -0.6144293 -0.6996389 -1.3374689 0.18870738 0.5886664
şi 0.6546578 1.5810109 0.8366535 0.3446295 1.8794053 0.96466005 0.8510367 -2.5283253 1.0002345 4.926528
east 0.7486674 -0.917381 -0.065943055 0.18394522 0.02271236 -0.3699875 -1.3407876 -2.118314 0.9744754 0.58858794
court 0.46737188 -0.7197005 0.1411506 1.4587361 -0.5459177 -0.7211433 0.64671546 -0.5950715 0.41936454 1.1401706
AJDC 1.4930584 0.49489778 0.15189065 0.9270772 1.5290682 -0.25870624 -0.8831727 0.3895457 -0.27132866 2.4949505
E 0.1305635 0.6976737 -1.3143456 0.8864529 -0.0383057 -0.39564854 -0.7633219 0.028543353 0.5886804 1.6323357
mea 0.77508366 -1.2336822 -0.1839136 -1.6341308 0.22430992 -1.2635124 -0.50868714 -0.3585161 0.3311921 1.6650946
K 0.07589644 0.33783874 -1.1384349 1.2882692 -0.19514394 -0.4632474 -0.512079 0.042685032 0.97945297 1.5208768
control 0.053325117 -1.6673248 0.14650047 -0.18007098 0.28373253 -0.83724964 -0.13013096 -1.0459975 -0.10773634 1.293952
troops 0.33873293 -1.2371839 -0.03352342 0.42485386 -0.5142364 -0.81496704 -0.33771113 -1.4833213 0.74556595 0.7059958
publications 1.3204572 0.3856546 -0.10104589 0.27899188 -0.7524233 0.13138951 -1.0994288 -0.17486629 1.1839974 1.211995
little 1.101463 0.23069143 0.277346 -0.03437879 -0.30767635 -0.9755287 -0.60383236 -0.92722 -0.6701149 0.7693563
Encyclopedia 1.0373638 0.91576165 0.4474093 -1.4169965 -1.9594902 -0.07907514 -1.0817052 -0.6544832 2.148871 2.3503773
often 0.6280224 -0.12984751 0.44601277 -0.32751587 -0.80203235 -1.3902313 -0.21250214 -0.9609392 -0.42542654 0.7831045
move 0.8199745 -0.226847 0.69855344 -0.39493805 0.54351914 -1.218294 -1.4493304 -1.1039555 0.11560857 0.97416717
entry 1.2598065 0.0018125522 -0.013293825 0.6363647 -0.6383802 0.0063570677 -0.7736329 0.09021819 -0.3583099 1.0551436
air 0.28717422 -0.7954524 0.15442036 -0.54900086 -1.9127822 -1.277134 -1.0913317 -1.1424078 -0.36397034 0.63130724
BA-BL 0.5042597 -0.11782108 -1.7680738 1.1196394 -0.70411533 -0.69121873 -1.1534327 0.34578365 1.2434919 1.8071237
Wilhelm -0.89466864 -0.621498 0.3178265 1.267772 0.17968407 -1.20325 -0.07096395 0.34092888 0.2988911 1.8138498
Ser -0.28579864 -1.2971504 -0.8420858 0.46973127 -0.6204438 -0.03285875 0.8725133 -1.356844 0.28976375 1.9487529
judeţ 1.5102043 -0.6624339 -0.3770222 0.08756989 1.4742124 0.14776805 -0.08614697 -2.5275307 0.42284086 1.762307
accounts 1.139309 0.39555112 0.15238287 1.0356786 -0.5497404 -0.58739626 -0.26247767 -0.08628428 0.114689305 0.9310822
perform 0.7988084 -0.67024237 -0.069410376 -1.272314 -0.083105095 -1.9843273 -1.3006539 -0.4090541 -0.4364554 1.3246199
security 0.07368692 -1.1640254 -0.09877864 -0.44233048 -0.075002655 -1.3517461 0.16787428 -1.0773907 0.071720816 1.0751044
liberated 0.60256124 -0.7805152 0.15813327 1.1138165 -0.7980573 -0.5182246 -0.24206589 -1.7690065 0.7639821 0.54522234
m 0.6004147 0.16128767 -0.54681695 0.40283096 0.68844366 -1.7933235 -0.49929658 -0.94203717 0.50116646 0.8854753
dead 0.712314 0.09558944 0.38028288 0.7907248 -0.97012913 -1.4991778 -0.8852666 -0.9304094 0.12639257 0.40188238
witness 1.0861712 0.18287168 -0.32271767 1.381529 -0.57510674 -1.2343045 -0.07054392 -0.22904646 0.49687073 0.86077243
man -0.6948653 -0.08939544 0.6695628 0.6808758 -0.12335929 -1.9197416 -0.187607 -0.45215183 0.32522744 1.2480736
synagogue 0.5250342 -0.102444574 0.44926447 -0.58308434 0.42370296 -1.3831165 -1.3802215 -1.3048604 0.4522453 0.9102307
Hungary 0.6324993 -0.8215778 0.87292254 -0.19734563 -0.74062836 0.56674206 -0.2700626 -1.4410431 1.2028462 1.1824119
foreign 0.31481948 -1.0719403 0.11483146 -1.0259637 -0.6936288 -0.39712262 -0.011988119 -1.5158341 -0.52392066 1.1279346
Munich -0.42671558 -0.48972163 0.27366465 1.1552596 -1.2533962 -0.025734078 -0.8231125 0.14154515 0.37881216 1.4207916
close 0.0052498546 -0.6338537 0.2460276 0.0055467426 -0.3708319 -0.79334354 -1.1075188 -1.426392 -0.024615709 0.5586133
existed 0.7276083 -0.8768208 0.013034423 0.48694265 -0.09020482 -0.40634567 -1.0295551 -0.8425635 -0.47126928 0.7351071
inside 0.43557242 -0.38278428 0.2859125 -0.38229027 -0.04047637 -1.1543638 -0.5895104 -1.2861282 -0.13271639 0.7777815
either 0.7282725 -0.5369638 0.57498914 0.19690879 -0.3993604 -0.9746172 -0.77962315 -1.0269011 0.058742598 0.5906068
Its 0.41521794 -0.41097122 0.55945194 -0.121771686 0.578142 -0.02607519 -1.2919835 0.044424698 0.2643799 1.5652529
headed -0.5560889 -0.7836838 0.45963797 0.66015506 0.95992446 -1.2736837 -0.27677596 -0.32415304 0.47048905 1.631715
den -1.2435174 0.32579255 -0.40084293 1.5906771 -2.168328 -0.11711049 -1.3058797 -0.33214626 0.07153668 2.1481373
ly -0.06758753 0.32703272 1.2703341 0.96600085 -0.83917886 -1.6619456 -1.405748 -1.4668628 0.8657824 0.6375172
barbed 0.35162118 -0.13401157 -0.7759272 -0.2845172 0.42654583 -2.1089485 -1.1709504 -2.1615663 -0.4616596 0.9535724
eve 1.2662468 -0.22520474 -0.62156165 0.6312498 0.20318821 -1.3737959 -1.0181884 -1.5926497 0.49698925 0.43559414
Group -0.7460455 -1.5692515 -1.2627765 -0.3309269 -0.15229389 -0.51455605 -0.53905165 -1.3246264 1.3631709 1.6894056
prepared 0.47391063 -0.14423256 0.31064934 0.22869888 -0.414424 -0.9246418 -1.0764272 -0.14533888 -0.4748795 0.7904064
tion -0.57381445 -0.18229294 1.3936151 0.029393634 0.46802327 -0.15900028 -0.01656108 -0.6258473 0.16938655 1.9205177
details 0.8236259 -0.558991 -0.13528167 0.29529735 -0.9909619 -0.735065 -0.72857624 0.059843738 -0.49661413 0.85993534
underground -0.2518142 -0.828204 0.8711695 -0.44996613 -0.8809653 -0.75437766 -1.0833236 -0.48663223 -0.25101024 0.98813844
Information 1.2343401 -0.46346718 -0.11234492 0.73408157 -0.6842623 0.03477956 -0.8793469 -0.59820366 1.1003815 0.7661216
About 0.711602 -0.5400042 0.23722579 0.41654572 0.08139835 -1.3170571 -1.0322686 -1.3103431 0.45477492 0.59341955
Encyclopaedia 1.0996715 0.4624438 0.75003296 -1.0592883 -0.4127232 0.32711294 -3.344416 0.29284042 1.6669134 4.0048203
authority 0.12819822 -1.6589758 -0.24409765 -0.36936343 0.6990088 -1.2024211 -0.46908143 -0.7145459 0.6393623 1.4578344
statement 0.18559888 0.13119172 -0.77289945 1.5570495 -0.39611122 -1.0501372 -0.03872274 0.30372688 0.4891383 1.5686499
hundred 1.0016805 -0.5821335 0.38900247 0.61021906 -0.16370651 -1.039995 -0.87237585 -1.5168264 0.3718636 0.54372066
din 0.7423446 1.0932207 0.37010247 0.29846013 1.5853255 0.7096288 1.2315892 -2.0449853 0.6317108 4.347964
Although 0.5774282 -0.37638208 0.42368007 -0.0066667753 -0.32081002 -0.6445543 -0.19499551 -0.7950102 -0.38223436 0.8500633
if 1.0147941 0.15420328 0.72924525 -0.39095 -0.5980693 -1.4232224 -0.13186887 -0.7922196 -0.06498779 0.9861772
Social -0.05571303 -1.1042954 1.4583285 -0.09530032 0.34380054 0.4946989 0.4185789 -0.42317498 0.31339204 2.3161123
Gendarmes 0.2480641 -0.5488894 -0.027871246 0.3347051 1.4842541 -1.5034056 0.24829584 -1.2582959 0.8640392 1.460811
buried 0.7371713 -0.030036077 -0.015764806 0.74789715 -1.1004133 -1.6435368 -1.3421774 -1.3986595 0.60903573 0.29461518
month 0.99215347 -0.59590924 -0.005884905 0.56207013 0.48961228 -1.0654393 -0.29524773 -1.2546009 -0.2518124 0.85822475
existence 1.1893176 -0.6611032 0.28484043 0.46585485 -0.2594492 -0.5261887 -0.84259814 -0.5843783 -0.3993041 0.78520644
doctor -0.049342643 0.014771832 0.68365645 1.0042207 0.3309354 -1.0812051 0.3199958 -0.8857693 -0.64669114 1.2286532
housed 0.18863492 -0.49492854 0.16895041 0.016837562 -0.010373743 -0.623974 -0.6911094 -1.8069856 -0.73697376 0.7948848
described 0.43105876 0.054878358 0.55945647 0.59601533 -0.6489702 -0.48580953 -0.21735168 -0.2314799 -0.37296635 0.9098921
poor 1.0187151 0.26651564 0.9339754 -0.27367327 0.07689451 -0.9198062 -0.30201775 -1.2317388 -1.2755474 1.3041968
soup 0.7774535 1.1472996 0.70352983 0.29923427 1.1270078 -1.758088 -0.3879285 -1.5875742 -1.1873337 1.605409
subsequently 0.55165815 -0.48072666 0.59965795 0.24362274 0.107084766 -0.90793955 -0.61688894 -0.764263 0.6880534 0.86653376
Region 0.2393388 -0.23692393 -0.30485752 0.3266314 0.27124533 0.7272586 -2.3872564 -0.07966643 1.3586954 2.0184934
take 0.6322043 0.07306495 0.8971402 -0.36753866 -0.12319314 -1.6544068 -0.72807 -0.858011 0.0023719233 0.9678306
log 0.40310106 1.054286 -0.7587358 2.7543056 -0.9036791 -0.68485177 0.3449711 -1.3784872 -0.7083724 2.0569391
provide 0.6319396 -0.22818615 0.49044555 -0.06993399 -0.13556388 -0.6307724 -0.4313171 -0.3278577 -1.1124494 1.2056706
room 0.47526604 0.4014922 0.49945107 0.00032868388 0.16896312 -1.5956537 -0.7267056 -1.7155015 -0.9585665 0.95582396
assistance 0.59553725 -0.23494916 1.0103545 -0.11619284 0.5432778 -0.99219126 0.04126816 -0.6793532 0.23052685 1.3146925
parts -0.047336947 -0.7597597 0.15994172 -0.6261996 -0.56367695 -0.4086389 -1.6022743 -0.6967179 -0.20856635 0.79149425
school -0.18400261 -0.33604452 0.26220688 -0.072194524 0.31000862 -1.1275351 -0.69022256 -1.2204162 -0.2158886 0.88583875
Stephen -0.03558542 -0.12143406 -1.2960336 1.2359539 -1.0538688 -0.5847063 -1.661315 0.6418079 -0.7055783 2.1269448
Doc -0.2518443 0.5732322 -1.1549422 0.5606284 -0.019123988 0.5643517 0.749805 -0.6581263 -0.250379 2.5413013
persecution 1.5375566 -0.61536795 -0.12524901 -0.466844 -0.663457 -0.14971869 -0.42497042 -0.47741774 1.1541802 1.0495964
post -0.5080689 -1.1205145 -0.17501573 0.6941915 1.0014999 -1.4562953 -0.5213498 -0.7787539 0.6153731 1.4198835
Heinrich -0.7412063 -0.70241576 0.042080592 1.0069684 -0.18634161 -1.2112242 -0.12096494 0.26427168 -0.07018054 1.5457989
form 1.1306994 -0.14970388 -0.71052444 -0.942915 -0.2002883 -0.67885596 -0.05773721 -0.09252061 -0.27740058 1.1993474
opened 0.0145385945 -0.5296664 0.35694584 0.40955976 0.23607461 -0.6694246 -0.38976243 -1.14925 -0.7929407 0.9852286
Paris -0.3058331 0.116555266 -0.2442167 -0.7049429 -0.55809826 1.1895916 -0.35934255 -0.59236336 -0.30894998 2.3681123
auxiliary -0.22958094 -1.2710054 0.11543433 -0.15117942 0.41539955 -2.1617343 -0.5191028 -0.7343894 0.80357933 1.491391
again 0.41254026 -0.36438355 0.63188297 0.58600473 -0.28392425 -1.1549788 -0.33793736 -1.1892525 0.019112976 0.70936865
Shmuel 1.0954502 1.0233492 -0.11879378 -0.22016446 -0.44357243 -0.36950833 -1.6512853 0.18029757 1.8395255 1.9780134
too 1.3043704 0.17716283 0.3245674 0.42433974 -0.50056756 -1.1618258 -0.49681997 -0.87256235 -0.031402297 0.60901606
Spector 1.458886 1.0062177 -0.44048598 -0.1837208 -0.7427667 -0.2267019 -1.9590826 -0.09943939 1.8814019 2.2003865
Documentation 1.2883655 -0.24168928 -0.45880866 0.2325696 -0.65703595 0.7263294 -0.970799 -0.5097559 1.6028847 1.5521103
L 0.056696445 0.38080618 -0.16205463 0.84400797 -0.5854819 0.34518698 0.29787844 -0.05667419 0.7469381 1.6978886
placed 0.2544282 -0.6479214 0.110418685 -0.13102429 0.26545033 -0.9859515 -0.47339395 -1.4411808 0.010987085 0.783826
employed -0.03557415 -0.82289034 0.22754693 -0.111304246 -0.21287994 -1.1802571 -1.0270021 -0.601866 -0.8645759 0.9887929
every 0.7256491 -0.009643637 0.16871269 -0.02018724 -0.18184929 -1.615967 -0.2823598 -1.233859 -0.35630608 0.76543075
released 0.36428168 -0.5434533 0.7877825 0.5156538 -0.2699563 -0.74197334 0.3364257 -1.2595503 0.2603741 0.90602154
return 0.80715346 -0.08767492 0.9019812 0.023758132 0.2168564 -1.1096475 -0.5206684 -1.0740738 0.34618998 0.8954798
Ghetto 0.24922338 0.071408555 -0.0018148319 0.21435237 -0.20273691 0.017740354 -1.0305797 0.16805199 1.1963248 1.42748
built -0.27985513 -0.62881935 0.23912756 -0.3632807 -0.38620436 -0.8013065 -1.1883228 -1.8116473 -1.0642871 0.92346275
money 1.1317418 0.4807363 0.31027105 -0.96002406 0.6860778 -1.7170968 0.18463972 -0.72504014 -0.10256106 1.5814782
material 1.0951355 0.092130944 -0.20915574 -0.17284258 -0.72736543 -0.27059954 -0.48285645 -0.3815636 -0.72269046 0.8383254
situation 0.8226657 -0.29410717 0.50192153 -0.10359785 -0.022412533 -0.5023525 -0.12659372 -0.4838239 -0.40206727 1.0344049
District -0.008415895 -1.0517305 0.10464985 1.1589689 0.106445484 0.7385586 -0.5982937 -0.5537312 1.2688627 1.6354499
born -0.047939237 0.06341313 -0.065921456 1.520118 -0.010333113 -1.2822602 -0.10289632 -0.19452144 0.76278645 1.111215
increased 1.0579015 -0.99311554 0.2711718 0.061210863 -0.21116322 -0.7613434 -0.5563646 -0.9894671 -0.5954898 0.8792595
short 0.95690036 -0.29467085 0.12911782 0.30761462 -0.37246922 -0.5073007 -0.4859316 -0.7476492 -0.067261636 0.5937177
army 0.3431883 -0.92968786 -0.18060984 -0.372636 0.25135297 -1.1877475 -0.25017533 -1.4240247 0.6027692 0.8523878
registered 1.0898833 -0.86588544 -0.072914146 0.18132755 0.27475423 -0.8773299 -0.7846736 -0.59585696 0.016007472 0.8625093
Josef -0.44126472 0.19035219 0.27049452 1.0708909 -0.0072887824 -1.1171441 -0.045096263 0.66250783 0.458602 1.812434
reproduced 0.20261645 0.42100233 -0.64447373 0.9124126 -0.25979194 1.1942073 0.38187045 -0.47324753 -0.31264293 2.41733
Lithuania 0.5848959 -0.59537256 -0.05363713 -0.49261436 -0.48447543 -0.17171097 -2.0333104 -0.23265164 2.1284628 1.6238505
file 1.4139334 0.4304311 -1.484611 0.26263225 0.69205666 0.17046016 0.93256944 -1.2657554 0.38000104 2.2844157
hunger 1.5335377 0.621709 0.9328977 -0.41665286 -0.479695 -1.2241118 -0.18898757 -1.1902561 -0.27155146 1.0188181
Camps 0.20488857 -0.9347233 -1.412387 -0.06344511 -0.88394535 0.6422877 -0.47486964 -0.38724157 0.4999834 1.5942903
nd 0.031597495 -0.5834864 0.42355767 0.10378494 -0.9017084 -0.40989006 -0.040570993 -0.2477643 0.8729658 0.98893744
assisted -0.12396553 -0.7601852 0.26483575 0.2501822 0.6927078 -1.8540996 -0.08081299 -0.67489374 1.0671629 1.4173346
morning 0.49607846 -0.043140743 -0.23905982 0.6323563 0.15106432 -2.3010278 -0.590167 -1.645275 0.31322283 0.6049184
Party -1.265811 -1.0125062 0.6549836 -0.22713093 -0.88473654 -0.34568685 0.77490985 -1.0789713 1.0666238 1.9306593
www 1.0371076 1.2399204 -0.6570452 -0.063498676 -0.7238901 1.0327904 -0.63525647 -0.9286361 -0.04149979 1.6531504
J -0.1792875 0.79450953 -0.018728375 1.1074044 0.29351425 -0.11346251 -0.3059981 0.2954614 0.43080533 1.9835596
Pallavicini -0.29926673 -0.32935545 -1.4062047 1.3030014 -1.1119859 -0.540859 -1.7517428 0.41464436 -0.75061125 2.0381389
To 0.6351226 0.15815988 0.70369875 -0.5523199 -0.17309336 -0.7660463 -0.45061427 -0.056594033 -0.2849051 1.0877519
replaced -0.4902324 -0.669084 0.4389872 0.58328503 0.2531376 -1.4994332 -0.12981215 -0.44359303 -0.13850313 1.2355399
Two 0.5822218 -0.19770332 0.41304433 0.45719188 -0.31687585 -0.7674389 -0.4520604 -0.6873022 0.19612639 0.60333955
anti-Jewish 0.74041754 -1.580602 0.16196145 -1.0747612 0.31855312 -1.5339777 -0.65883595 0.17161793 1.1490681 1.9123405
Battalion -0.5071243 -1.4681032 -0.87091696 0.53102624 0.12574711 -1.0929489 -0.020609448 -1.1569953 1.2090236 1.3607033
Radom 0.4344919 -0.54800516 0.6498137 0.907228 0.8838248 0.21240102 -1.9911937 -0.2298172 0.19782054 1.5939239
wooden 0.18703131 0.13124117 -0.26699564 -0.43875712 -0.06278797 -1.6507899 -1.4204875 -1.9666045 -0.99914545 0.8527353
sures 0.8258303 -1.3367454 -0.11600163 -1.35496 0.08542342 -1.2192 -0.44938213 -0.05204204 0.41644624 1.6805189
Abraham 0.59610176 1.022031 0.54432386 0.4206629 0.34760192 -0.20451526 -1.1593902 0.7981513 0.55865103 2.2560978
SA -0.82648766 -0.6851557 0.5761285 0.17660819 -0.852363 -1.4077528 0.009542823 -0.51977503 -0.03161039 1.1498811
invasion 1.295514 -1.651576 -0.028995544 -0.15315393 -0.30576447 -0.7930519 -1.0067916 -1.588811 1.5257666 1.03012
O- 1.1267443 0.9533278 -1.3469609 0.8737017 0.30693048 -1.043164 -0.89005476 0.27358618 1.2155406 2.0722122
vom -1.1801344 0.42560604 -1.8452785 2.1349247 -2.0986323 -1.0039593 -0.5227478 -0.55644274 0.83268005 2.6728413
Jew 0.429687 0.39214173 0.625957 0.12591429 0.05018154 -1.3282659 -0.061371025 -0.53858393 1.0740321 0.96782374
Several 0.685508 -0.39342484 0.59276414 0.54030746 -0.22675613 -0.90561265 -0.8055378 -0.78144515 0.28263184 0.5806571
General -0.5101379 -1.0441806 -0.873494 0.045061186 0.14903203 -0.15653978 0.8474361 -0.9311612 0.46591464 1.9167463
infi 0.037956525 0.19647354 0.7920467 1.1450248 -0.5194846 -1.7458993 -0.50598913 -1.3771871 -1.4584155 1.0553384
themselves 0.507223 0.056655444 0.8765299 -0.5992643 -0.4574768 -1.4365612 -0.39186534 -1.0055596 0.04398117 0.90939087
home 0.49912578 0.21075985 0.9499498 0.06981549 0.1230279 -1.0974818 -0.51403654 -1.2402736 0.38316348 0.80980766
Wein 1.1962259 1.4533312 0.62986964 0.066309415 0.24136868 0.066271216 -2.489554 0.7349552 0.66431046 3.2630677
holds 1.3401773 -0.11150422 -1.0741434 0.359023 -0.6179392 -0.06586745 0.1041239 -0.32616562 -0.3410475 1.2850676
ghetto’s 1.2522292 -0.31300092 0.665499 0.09689097 0.6540766 -0.9849469 -0.8231811 -0.5333676 0.10310083 1.0860759
behind 0.40486038 -0.23356287 0.52678937 0.10938175 -0.30200785 -1.502689 -1.0056449 -1.4706849 0.38686708 0.58224416
AR 0.2259362 -0.33627763 -1.6840911 1.9782495 -0.88929003 -0.7771336 -0.60022664 0.11448571 0.009889501 1.9468104
interned 0.51723 -0.7279437 0.3683579 0.07473301 -0.24383615 -0.019791419 0.14604092 -1.6927943 0.013996354 0.9208045
week 0.69782203 -0.21706931 0.024623172 0.33237052 0.2550386 -1.4898454 -0.40446657 -1.401619 -0.0021246434 0.6835466
M- 0.9675885 0.8540219 -1.8007833 0.8527734 0.33109346 -1.0082016 -0.56368613 0.18678871 1.1183885 2.2934828
mayor -0.13792367 -0.6600955 0.18043698 0.083574556 0.94885015 -1.1021653 -0.03265209 -0.48177102 0.5350804 1.4453759
although 0.98562264 -0.48633334 0.42671147 0.011749719 -0.22856835 -0.7691662 -0.2786914 -0.81974125 -0.18618952 0.82032645
Commission 0.7821469 -0.8067044 -0.6716347 0.7618139 -0.29856881 0.028751606 0.4565769 -0.96308863 1.4580545 1.3829098
clothes 0.55259097 0.59164774 0.20752561 -0.9444281 -0.24521501 -2.2015584 -0.66573787 -1.1066105 -0.41600376 1.1347898
public 0.38605505 -0.2975918 0.3344676 -0.68918675 0.25704193 -1.1858194 0.005375292 -0.58884007 -0.24686728 1.2738214
forbidden 1.2240863 0.1358556 0.31856942 -1.4216477 0.27893966 -1.99429 -0.9443842 -0.5781749 0.051052663 1.433362
SD -0.49829063 -1.349894 -0.33783764 0.94657457 0.11551769 -1.6770691 -0.7077158 -0.3899586 1.264567 1.2742586
d -0.27996325 0.045590997 -1.521148 1.0972555 -0.2914365 0.0049598217 -0.49224383 -0.42542395 -0.39760625 1.5736377
rations 1.030082 0.29125726 0.3651315 -0.3234975 0.16441233 -1.5485635 -0.10760839 -1.0229691 -1.1521212 1.3059037
Vichy 0.08767982 -0.92990506 0.001833213 -1.346764 -0.12458473 0.8236072 -0.047741152 -1.0752759 -0.36793765 2.265904
start 0.99305564 -1.4639869 -0.22218278 0.056210168 0.29616576 -0.9788614 -0.75142705 -1.0094379 0.7617937 0.9708205
facilities 0.17077541 -0.55240935 0.24773192 -0.45972496 -0.462573 -0.7383313 -0.989806 -1.1303663 -1.4948257 1.0336404
za -0.88246703 0.28938243 1.8848908 0.2412587 0.58163446 0.06404906 -0.36708668 -1.066989 0.5353435 2.0754108
Prisoners 0.24681689 -0.28365383 -0.48197365 -0.3086026 -1.1440127 -0.56352633 -0.55477345 -0.73001546 -0.15525074 0.54572994
opis 1.9352592 0.696608 -1.637832 0.3743041 1.0350122 -0.7231547 0.93684065 -1.4402609 0.3207692 2.7196
important 0.7215514 -0.72412425 0.1435744 0.011288221 -1.2581258 -0.36000735 -0.72437227 0.03841589 -0.39276025 0.9544538
